digraph Tree {
node [shape=box, style="filled, rounded", color="black", fontname="helvetica"] ;
edge [fontname="helvetica"] ;
0 [label=<C3 &le; 3.5<br/>entropy = 1.415<br/>samples = 102501<br/>value = [51136, 43598, 4870, 2145, 383, 205, 139, 22, 2, 1]<br/>class = Nothing in hand>, fillcolor="#fcefe6"] ;
1 [label=<C1 &le; 3.5<br/>entropy = 1.394<br/>samples = 23821<br/>value = [11928, 10172, 1125, 468, 46, 50, 23, 8, 1, 0]<br/>class = Nothing in hand>, fillcolor="#fcefe6"] ;
0 -> 1 [labeldistance=2.5, labelangle=45, headlabel="True"] ;
2 [label=<C5 &le; 3.5<br/>entropy = 1.555<br/>samples = 5122<br/>value = [1931, 2577, 383, 193, 9, 11, 10, 7, 1, 0]<br/>class = One Pair>, fillcolor="#f9fad7"] ;
1 -> 2 ;
3 [label=<C4 &le; 3.5<br/>entropy = 1.697<br/>samples = 1015<br/>value = [176, 599, 121, 106, 3, 1, 5, 4, 0, 0]<br/>class = One Pair>, fillcolor="#f0f29b"] ;
2 -> 3 ;
4 [label=<C2 &le; 3.5<br/>entropy = 1.778<br/>samples = 187<br/>value = [0, 83, 53, 42, 0, 0, 5, 4, 0, 0]<br/>class = One Pair>, fillcolor="#f9f9d3"] ;
3 -> 4 ;
5 [label=<C2 &le; 1.5<br/>entropy = 1.533<br/>samples = 34<br/>value = [0, 0, 19, 9, 0, 0, 5, 1, 0, 0]<br/>class = Two Pairs>, fillcolor="#caf5b0"] ;
4 -> 5 ;
6 [label=<S2 &le; 2.5<br/>entropy = 1.566<br/>samples = 15<br/>value = [0, 0, 6, 5, 0, 0, 4, 0, 0, 0]<br/>class = Two Pairs>, fillcolor="#f2fceb"] ;
5 -> 6 ;
7 [label=<C3 &le; 2.5<br/>entropy = 0.863<br/>samples = 7<br/>value = [0, 0, 5, 2, 0, 0, 0, 0, 0, 0]<br/>class = Two Pairs>, fillcolor="#b0ef88"] ;
6 -> 7 ;
8 [label=<S3 &le; 2.5<br/>entropy = 0.65<br/>samples = 6<br/>value = [0, 0, 5, 1, 0, 0, 0, 0, 0, 0]<br/>class = Two Pairs>, fillcolor="#95ea61"] ;
7 -> 8 ;
9 [label=<S1 &le; 2.0<br/>entropy = 1.0<br/>samples = 2<br/>value = [0, 0, 1, 1, 0, 0, 0, 0, 0, 0]<br/>class = Two Pairs>, fillcolor="#ffffff"] ;
8 -> 9 ;
10 [label="(...)", fillcolor="#C0C0C0"] ;
9 -> 10 ;
11 [label="(...)", fillcolor="#C0C0C0"] ;
9 -> 11 ;
12 [label=<entropy = 0.0<br/>samples = 4<br/>value = [0, 0, 4, 0, 0, 0, 0, 0, 0, 0]<br/>class = Two Pairs>, fillcolor="#7be539"] ;
8 -> 12 ;
13 [label=<entropy = 0.0<br/>samples = 1<br/>value = [0, 0, 0, 1, 0, 0, 0, 0, 0, 0]<br/>class = Three of a Kind>, fillcolor="#39e55e"] ;
7 -> 13 ;
14 [label=<C3 &le; 1.5<br/>entropy = 1.406<br/>samples = 8<br/>value = [0, 0, 1, 3, 0, 0, 4, 0, 0, 0]<br/>class = Full House>, fillcolor="#d8d7fa"] ;
6 -> 14 ;
15 [label=<S5 &le; 3.0<br/>entropy = 0.918<br/>samples = 3<br/>value = [0, 0, 1, 2, 0, 0, 0, 0, 0, 0]<br/>class = Three of a Kind>, fillcolor="#9cf2ae"] ;
14 -> 15 ;
16 [label=<entropy = 0.0<br/>samples = 2<br/>value = [0, 0, 0, 2, 0, 0, 0, 0, 0, 0]<br/>class = Three of a Kind>, fillcolor="#39e55e"] ;
15 -> 16 ;
17 [label=<entropy = 0.0<br/>samples = 1<br/>value = [0, 0, 1, 0, 0, 0, 0, 0, 0, 0]<br/>class = Two Pairs>, fillcolor="#7be539"] ;
15 -> 17 ;
18 [label=<S2 &le; 3.5<br/>entropy = 0.722<br/>samples = 5<br/>value = [0, 0, 0, 1, 0, 0, 4, 0, 0, 0]<br/>class = Full House>, fillcolor="#6d6aec"] ;
14 -> 18 ;
19 [label=<entropy = 0.0<br/>samples = 3<br/>value = [0, 0, 0, 0, 0, 0, 3, 0, 0, 0]<br/>class = Full House>, fillcolor="#3c39e5"] ;
18 -> 19 ;
20 [label=<S4 &le; 2.0<br/>entropy = 1.0<br/>samples = 2<br/>value = [0, 0, 0, 1, 0, 0, 1, 0, 0, 0]<br/>class = Three of a Kind>, fillcolor="#ffffff"] ;
18 -> 20 ;
21 [label="(...)", fillcolor="#C0C0C0"] ;
20 -> 21 ;
22 [label="(...)", fillcolor="#C0C0C0"] ;
20 -> 22 ;
23 [label=<C2 &le; 2.5<br/>entropy = 1.295<br/>samples = 19<br/>value = [0, 0, 13, 4, 0, 0, 1, 1, 0, 0]<br/>class = Two Pairs>, fillcolor="#b0ef88"] ;
5 -> 23 ;
24 [label=<S1 &le; 1.5<br/>entropy = 0.469<br/>samples = 10<br/>value = [0, 0, 9, 0, 0, 0, 0, 1, 0, 0]<br/>class = Two Pairs>, fillcolor="#8ae84f"] ;
23 -> 24 ;
25 [label=<S5 &le; 2.5<br/>entropy = 0.918<br/>samples = 3<br/>value = [0, 0, 2, 0, 0, 0, 0, 1, 0, 0]<br/>class = Two Pairs>, fillcolor="#bdf29c"] ;
24 -> 25 ;
26 [label=<entropy = 0.0<br/>samples = 1<br/>value = [0, 0, 0, 0, 0, 0, 0, 1, 0, 0]<br/>class = Four of a Kind>, fillcolor="#a339e5"] ;
25 -> 26 ;
27 [label=<entropy = 0.0<br/>samples = 2<br/>value = [0, 0, 2, 0, 0, 0, 0, 0, 0, 0]<br/>class = Two Pairs>, fillcolor="#7be539"] ;
25 -> 27 ;
28 [label=<entropy = 0.0<br/>samples = 7<br/>value = [0, 0, 7, 0, 0, 0, 0, 0, 0, 0]<br/>class = Two Pairs>, fillcolor="#7be539"] ;
24 -> 28 ;
29 [label=<C1 &le; 2.5<br/>entropy = 1.392<br/>samples = 9<br/>value = [0, 0, 4, 4, 0, 0, 1, 0, 0, 0]<br/>class = Two Pairs>, fillcolor="#ffffff"] ;
23 -> 29 ;
30 [label=<C5 &le; 2.5<br/>entropy = 1.0<br/>samples = 8<br/>value = [0, 0, 4, 4, 0, 0, 0, 0, 0, 0]<br/>class = Two Pairs>, fillcolor="#ffffff"] ;
29 -> 30 ;
31 [label=<S1 &le; 1.5<br/>entropy = 0.918<br/>samples = 6<br/>value = [0, 0, 2, 4, 0, 0, 0, 0, 0, 0]<br/>class = Three of a Kind>, fillcolor="#9cf2ae"] ;
30 -> 31 ;
32 [label="(...)", fillcolor="#C0C0C0"] ;
31 -> 32 ;
33 [label="(...)", fillcolor="#C0C0C0"] ;
31 -> 33 ;
36 [label=<entropy = 0.0<br/>samples = 2<br/>value = [0, 0, 2, 0, 0, 0, 0, 0, 0, 0]<br/>class = Two Pairs>, fillcolor="#7be539"] ;
30 -> 36 ;
37 [label=<entropy = 0.0<br/>samples = 1<br/>value = [0, 0, 0, 0, 0, 0, 1, 0, 0, 0]<br/>class = Full House>, fillcolor="#3c39e5"] ;
29 -> 37 ;
38 [label=<C1 &le; 1.5<br/>entropy = 1.549<br/>samples = 153<br/>value = [0, 83, 34, 33, 0, 0, 0, 3, 0, 0]<br/>class = One Pair>, fillcolor="#f3f4ad"] ;
4 -> 38 ;
39 [label=<C5 &le; 1.5<br/>entropy = 1.427<br/>samples = 55<br/>value = [0, 32, 4, 17, 0, 0, 0, 2, 0, 0]<br/>class = One Pair>, fillcolor="#f4f5b1"] ;
38 -> 39 ;
40 [label=<C4 &le; 1.5<br/>entropy = 1.545<br/>samples = 17<br/>value = [0, 4, 1, 10, 0, 0, 0, 2, 0, 0]<br/>class = Three of a Kind>, fillcolor="#a4f3b5"] ;
39 -> 40 ;
41 [label=<C3 &le; 1.5<br/>entropy = 0.722<br/>samples = 10<br/>value = [0, 0, 0, 8, 0, 0, 0, 2, 0, 0]<br/>class = Three of a Kind>, fillcolor="#6aec86"] ;
40 -> 41 ;
42 [label=<entropy = 0.0<br/>samples = 2<br/>value = [0, 0, 0, 0, 0, 0, 0, 2, 0, 0]<br/>class = Four of a Kind>, fillcolor="#a339e5"] ;
41 -> 42 ;
43 [label=<entropy = 0.0<br/>samples = 8<br/>value = [0, 0, 0, 8, 0, 0, 0, 0, 0, 0]<br/>class = Three of a Kind>, fillcolor="#39e55e"] ;
41 -> 43 ;
44 [label=<S5 &le; 2.5<br/>entropy = 1.379<br/>samples = 7<br/>value = [0, 4, 1, 2, 0, 0, 0, 0, 0, 0]<br/>class = One Pair>, fillcolor="#f3f5b0"] ;
40 -> 44 ;
45 [label=<entropy = 0.0<br/>samples = 4<br/>value = [0, 4, 0, 0, 0, 0, 0, 0, 0, 0]<br/>class = One Pair>, fillcolor="#e2e539"] ;
44 -> 45 ;
46 [label=<S2 &le; 1.5<br/>entropy = 0.918<br/>samples = 3<br/>value = [0, 0, 1, 2, 0, 0, 0, 0, 0, 0]<br/>class = Three of a Kind>, fillcolor="#9cf2ae"] ;
44 -> 46 ;
47 [label="(...)", fillcolor="#C0C0C0"] ;
46 -> 47 ;
48 [label="(...)", fillcolor="#C0C0C0"] ;
46 -> 48 ;
49 [label=<S4 &le; 2.5<br/>entropy = 1.063<br/>samples = 38<br/>value = [0, 28, 3, 7, 0, 0, 0, 0, 0, 0]<br/>class = One Pair>, fillcolor="#ebed79"] ;
39 -> 49 ;
50 [label=<S3 &le; 2.5<br/>entropy = 1.241<br/>samples = 24<br/>value = [0, 15, 2, 7, 0, 0, 0, 0, 0, 0]<br/>class = One Pair>, fillcolor="#f1f3a2"] ;
49 -> 50 ;
51 [label=<S5 &le; 3.5<br/>entropy = 1.436<br/>samples = 9<br/>value = [0, 5, 2, 2, 0, 0, 0, 0, 0, 0]<br/>class = One Pair>, fillcolor="#f3f4aa"] ;
50 -> 51 ;
52 [label="(...)", fillcolor="#C0C0C0"] ;
51 -> 52 ;
59 [label="(...)", fillcolor="#C0C0C0"] ;
51 -> 59 ;
60 [label=<S1 &le; 1.5<br/>entropy = 0.918<br/>samples = 15<br/>value = [0, 10, 0, 5, 0, 0, 0, 0, 0, 0]<br/>class = One Pair>, fillcolor="#f0f29c"] ;
50 -> 60 ;
61 [label="(...)", fillcolor="#C0C0C0"] ;
60 -> 61 ;
62 [label="(...)", fillcolor="#C0C0C0"] ;
60 -> 62 ;
71 [label=<C4 &le; 1.5<br/>entropy = 0.371<br/>samples = 14<br/>value = [0, 13, 1, 0, 0, 0, 0, 0, 0, 0]<br/>class = One Pair>, fillcolor="#e4e748"] ;
49 -> 71 ;
72 [label=<S5 &le; 1.5<br/>entropy = 1.0<br/>samples = 2<br/>value = [0, 1, 1, 0, 0, 0, 0, 0, 0, 0]<br/>class = One Pair>, fillcolor="#ffffff"] ;
71 -> 72 ;
73 [label="(...)", fillcolor="#C0C0C0"] ;
72 -> 73 ;
74 [label="(...)", fillcolor="#C0C0C0"] ;
72 -> 74 ;
75 [label=<entropy = 0.0<br/>samples = 12<br/>value = [0, 12, 0, 0, 0, 0, 0, 0, 0, 0]<br/>class = One Pair>, fillcolor="#e2e539"] ;
71 -> 75 ;
76 [label=<C5 &le; 2.5<br/>entropy = 1.508<br/>samples = 98<br/>value = [0, 51, 30, 16, 0, 0, 0, 1, 0, 0]<br/>class = One Pair>, fillcolor="#f6f7c2"] ;
38 -> 76 ;
77 [label=<C2 &le; 6.5<br/>entropy = 1.285<br/>samples = 61<br/>value = [0, 35, 21, 5, 0, 0, 0, 0, 0, 0]<br/>class = One Pair>, fillcolor="#f5f6ba"] ;
76 -> 77 ;
78 [label=<S4 &le; 2.5<br/>entropy = 1.545<br/>samples = 21<br/>value = [0, 9, 7, 5, 0, 0, 0, 0, 0, 0]<br/>class = One Pair>, fillcolor="#fbfbe3"] ;
77 -> 78 ;
79 [label=<S2 &le; 2.5<br/>entropy = 1.555<br/>samples = 12<br/>value = [0, 3, 4, 5, 0, 0, 0, 0, 0, 0]<br/>class = Three of a Kind>, fillcolor="#e6fceb"] ;
78 -> 79 ;
80 [label="(...)", fillcolor="#C0C0C0"] ;
79 -> 80 ;
85 [label="(...)", fillcolor="#C0C0C0"] ;
79 -> 85 ;
90 [label=<S3 &le; 2.5<br/>entropy = 0.918<br/>samples = 9<br/>value = [0, 6, 3, 0, 0, 0, 0, 0, 0, 0]<br/>class = One Pair>, fillcolor="#f0f29c"] ;
78 -> 90 ;
91 [label="(...)", fillcolor="#C0C0C0"] ;
90 -> 91 ;
92 [label="(...)", fillcolor="#C0C0C0"] ;
90 -> 92 ;
97 [label=<C2 &le; 10.5<br/>entropy = 0.934<br/>samples = 40<br/>value = [0, 26, 14, 0, 0, 0, 0, 0, 0, 0]<br/>class = One Pair>, fillcolor="#f2f3a4"] ;
77 -> 97 ;
98 [label=<C4 &le; 2.5<br/>entropy = 0.684<br/>samples = 22<br/>value = [0, 18, 4, 0, 0, 0, 0, 0, 0, 0]<br/>class = One Pair>, fillcolor="#e8eb65"] ;
97 -> 98 ;
99 [label="(...)", fillcolor="#C0C0C0"] ;
98 -> 99 ;
106 [label="(...)", fillcolor="#C0C0C0"] ;
98 -> 106 ;
107 [label=<S2 &le; 2.5<br/>entropy = 0.991<br/>samples = 18<br/>value = [0, 8, 10, 0, 0, 0, 0, 0, 0, 0]<br/>class = Two Pairs>, fillcolor="#e5fad7"] ;
97 -> 107 ;
108 [label="(...)", fillcolor="#C0C0C0"] ;
107 -> 108 ;
113 [label="(...)", fillcolor="#C0C0C0"] ;
107 -> 113 ;
116 [label=<C1 &le; 2.5<br/>entropy = 1.68<br/>samples = 37<br/>value = [0, 16, 9, 11, 0, 0, 0, 1, 0, 0]<br/>class = One Pair>, fillcolor="#f9fad9"] ;
76 -> 116 ;
117 [label=<S2 &le; 1.5<br/>entropy = 1.353<br/>samples = 23<br/>value = [0, 14, 5, 4, 0, 0, 0, 0, 0, 0]<br/>class = One Pair>, fillcolor="#f0f29c"] ;
116 -> 117 ;
118 [label=<C4 &le; 1.5<br/>entropy = 0.722<br/>samples = 5<br/>value = [0, 1, 0, 4, 0, 0, 0, 0, 0, 0]<br/>class = Three of a Kind>, fillcolor="#6aec86"] ;
117 -> 118 ;
119 [label="(...)", fillcolor="#C0C0C0"] ;
118 -> 119 ;
120 [label="(...)", fillcolor="#C0C0C0"] ;
118 -> 120 ;
121 [label=<C3 &le; 1.5<br/>entropy = 0.852<br/>samples = 18<br/>value = [0, 13, 5, 0, 0, 0, 0, 0, 0, 0]<br/>class = One Pair>, fillcolor="#edef85"] ;
117 -> 121 ;
122 [label="(...)", fillcolor="#C0C0C0"] ;
121 -> 122 ;
123 [label="(...)", fillcolor="#C0C0C0"] ;
121 -> 123 ;
126 [label=<C4 &le; 2.5<br/>entropy = 1.689<br/>samples = 14<br/>value = [0, 2, 4, 7, 0, 0, 0, 1, 0, 0]<br/>class = Three of a Kind>, fillcolor="#c4f7cf"] ;
116 -> 126 ;
127 [label=<C3 &le; 2.5<br/>entropy = 1.5<br/>samples = 8<br/>value = [0, 2, 4, 2, 0, 0, 0, 0, 0, 0]<br/>class = Two Pairs>, fillcolor="#d3f6bd"] ;
126 -> 127 ;
128 [label="(...)", fillcolor="#C0C0C0"] ;
127 -> 128 ;
131 [label="(...)", fillcolor="#C0C0C0"] ;
127 -> 131 ;
132 [label=<C3 &le; 2.5<br/>entropy = 0.65<br/>samples = 6<br/>value = [0, 0, 0, 5, 0, 0, 0, 1, 0, 0]<br/>class = Three of a Kind>, fillcolor="#61ea7e"] ;
126 -> 132 ;
133 [label="(...)", fillcolor="#C0C0C0"] ;
132 -> 133 ;
134 [label="(...)", fillcolor="#C0C0C0"] ;
132 -> 134 ;
135 [label=<C2 &le; 3.5<br/>entropy = 1.523<br/>samples = 828<br/>value = [176, 516, 68, 64, 3, 1, 0, 0, 0, 0]<br/>class = One Pair>, fillcolor="#f0f198"] ;
3 -> 135 ;
136 [label=<C1 &le; 2.5<br/>entropy = 1.366<br/>samples = 147<br/>value = [0, 88, 25, 34, 0, 0, 0, 0, 0, 0]<br/>class = One Pair>, fillcolor="#f1f3a0"] ;
135 -> 136 ;
137 [label=<C5 &le; 1.5<br/>entropy = 1.393<br/>samples = 104<br/>value = [0, 59, 16, 29, 0, 0, 0, 0, 0, 0]<br/>class = One Pair>, fillcolor="#f3f5b0"] ;
136 -> 137 ;
138 [label=<S4 &le; 2.5<br/>entropy = 1.575<br/>samples = 36<br/>value = [0, 14, 11, 11, 0, 0, 0, 0, 0, 0]<br/>class = One Pair>, fillcolor="#fcfce7"] ;
137 -> 138 ;
139 [label=<S3 &le; 2.5<br/>entropy = 1.563<br/>samples = 24<br/>value = [0, 7, 7, 10, 0, 0, 0, 0, 0, 0]<br/>class = Three of a Kind>, fillcolor="#dcfae3"] ;
138 -> 139 ;
140 [label=<C4 &le; 5.5<br/>entropy = 0.991<br/>samples = 9<br/>value = [0, 5, 0, 4, 0, 0, 0, 0, 0, 0]<br/>class = One Pair>, fillcolor="#f9fad7"] ;
139 -> 140 ;
141 [label="(...)", fillcolor="#C0C0C0"] ;
140 -> 141 ;
146 [label="(...)", fillcolor="#C0C0C0"] ;
140 -> 146 ;
151 [label=<S1 &le; 1.5<br/>entropy = 1.429<br/>samples = 15<br/>value = [0, 2, 7, 6, 0, 0, 0, 0, 0, 0]<br/>class = Two Pairs>, fillcolor="#f0fce9"] ;
139 -> 151 ;
152 [label="(...)", fillcolor="#C0C0C0"] ;
151 -> 152 ;
155 [label="(...)", fillcolor="#C0C0C0"] ;
151 -> 155 ;
162 [label=<S3 &le; 1.5<br/>entropy = 1.281<br/>samples = 12<br/>value = [0, 7, 4, 1, 0, 0, 0, 0, 0, 0]<br/>class = One Pair>, fillcolor="#f4f5b5"] ;
138 -> 162 ;
163 [label=<entropy = 0.0<br/>samples = 2<br/>value = [0, 0, 2, 0, 0, 0, 0, 0, 0, 0]<br/>class = Two Pairs>, fillcolor="#7be539"] ;
162 -> 163 ;
164 [label=<S1 &le; 2.5<br/>entropy = 1.157<br/>samples = 10<br/>value = [0, 7, 2, 1, 0, 0, 0, 0, 0, 0]<br/>class = One Pair>, fillcolor="#edef83"] ;
162 -> 164 ;
165 [label="(...)", fillcolor="#C0C0C0"] ;
164 -> 165 ;
168 [label="(...)", fillcolor="#C0C0C0"] ;
164 -> 168 ;
171 [label=<S5 &le; 2.5<br/>entropy = 1.179<br/>samples = 68<br/>value = [0, 45, 5, 18, 0, 0, 0, 0, 0, 0]<br/>class = One Pair>, fillcolor="#eff194"] ;
137 -> 171 ;
172 [label=<S3 &le; 2.5<br/>entropy = 0.734<br/>samples = 34<br/>value = [0, 27, 0, 7, 0, 0, 0, 0, 0, 0]<br/>class = One Pair>, fillcolor="#eaec6c"] ;
171 -> 172 ;
173 [label=<entropy = 0.0<br/>samples = 17<br/>value = [0, 17, 0, 0, 0, 0, 0, 0, 0, 0]<br/>class = One Pair>, fillcolor="#e2e539"] ;
172 -> 173 ;
174 [label=<C4 &le; 6.5<br/>entropy = 0.977<br/>samples = 17<br/>value = [0, 10, 0, 7, 0, 0, 0, 0, 0, 0]<br/>class = One Pair>, fillcolor="#f6f7c4"] ;
172 -> 174 ;
175 [label="(...)", fillcolor="#C0C0C0"] ;
174 -> 175 ;
178 [label="(...)", fillcolor="#C0C0C0"] ;
174 -> 178 ;
189 [label=<S4 &le; 2.5<br/>entropy = 1.419<br/>samples = 34<br/>value = [0, 18, 5, 11, 0, 0, 0, 0, 0, 0]<br/>class = One Pair>, fillcolor="#f6f7c3"] ;
171 -> 189 ;
190 [label=<C4 &le; 7.5<br/>entropy = 1.322<br/>samples = 21<br/>value = [0, 13, 5, 3, 0, 0, 0, 0, 0, 0]<br/>class = One Pair>, fillcolor="#f0f29c"] ;
189 -> 190 ;
191 [label="(...)", fillcolor="#C0C0C0"] ;
190 -> 191 ;
194 [label="(...)", fillcolor="#C0C0C0"] ;
190 -> 194 ;
205 [label=<S3 &le; 1.5<br/>entropy = 0.961<br/>samples = 13<br/>value = [0, 5, 0, 8, 0, 0, 0, 0, 0, 0]<br/>class = Three of a Kind>, fillcolor="#b5f5c3"] ;
189 -> 205 ;
206 [label="(...)", fillcolor="#C0C0C0"] ;
205 -> 206 ;
207 [label="(...)", fillcolor="#C0C0C0"] ;
205 -> 207 ;
212 [label=<C4 &le; 12.5<br/>entropy = 1.216<br/>samples = 43<br/>value = [0, 29, 9, 5, 0, 0, 0, 0, 0, 0]<br/>class = One Pair>, fillcolor="#eef08b"] ;
136 -> 212 ;
213 [label=<S1 &le; 2.5<br/>entropy = 1.109<br/>samples = 40<br/>value = [0, 29, 7, 4, 0, 0, 0, 0, 0, 0]<br/>class = One Pair>, fillcolor="#ecee7b"] ;
212 -> 213 ;
214 [label=<C4 &le; 9.5<br/>entropy = 0.944<br/>samples = 18<br/>value = [0, 14, 1, 3, 0, 0, 0, 0, 0, 0]<br/>class = One Pair>, fillcolor="#eaec6e"] ;
213 -> 214 ;
215 [label=<C2 &le; 2.5<br/>entropy = 0.881<br/>samples = 10<br/>value = [0, 7, 0, 3, 0, 0, 0, 0, 0, 0]<br/>class = One Pair>, fillcolor="#eef08e"] ;
214 -> 215 ;
216 [label="(...)", fillcolor="#C0C0C0"] ;
215 -> 216 ;
221 [label="(...)", fillcolor="#C0C0C0"] ;
215 -> 221 ;
222 [label=<S5 &le; 3.5<br/>entropy = 0.544<br/>samples = 8<br/>value = [0, 7, 1, 0, 0, 0, 0, 0, 0, 0]<br/>class = One Pair>, fillcolor="#e6e955"] ;
214 -> 222 ;
223 [label="(...)", fillcolor="#C0C0C0"] ;
222 -> 223 ;
224 [label="(...)", fillcolor="#C0C0C0"] ;
222 -> 224 ;
227 [label=<C3 &le; 2.5<br/>entropy = 1.091<br/>samples = 22<br/>value = [0, 15, 6, 1, 0, 0, 0, 0, 0, 0]<br/>class = One Pair>, fillcolor="#eff090"] ;
213 -> 227 ;
228 [label=<C2 &le; 2.5<br/>entropy = 0.992<br/>samples = 20<br/>value = [0, 15, 4, 1, 0, 0, 0, 0, 0, 0]<br/>class = One Pair>, fillcolor="#ebed77"] ;
227 -> 228 ;
229 [label="(...)", fillcolor="#C0C0C0"] ;
228 -> 229 ;
240 [label="(...)", fillcolor="#C0C0C0"] ;
228 -> 240 ;
243 [label=<entropy = 0.0<br/>samples = 2<br/>value = [0, 0, 2, 0, 0, 0, 0, 0, 0, 0]<br/>class = Two Pairs>, fillcolor="#7be539"] ;
227 -> 243 ;
244 [label=<S5 &le; 1.5<br/>entropy = 0.918<br/>samples = 3<br/>value = [0, 0, 2, 1, 0, 0, 0, 0, 0, 0]<br/>class = Two Pairs>, fillcolor="#bdf29c"] ;
212 -> 244 ;
245 [label=<entropy = 0.0<br/>samples = 1<br/>value = [0, 0, 0, 1, 0, 0, 0, 0, 0, 0]<br/>class = Three of a Kind>, fillcolor="#39e55e"] ;
244 -> 245 ;
246 [label=<entropy = 0.0<br/>samples = 2<br/>value = [0, 0, 2, 0, 0, 0, 0, 0, 0, 0]<br/>class = Two Pairs>, fillcolor="#7be539"] ;
244 -> 246 ;
247 [label=<C2 &le; 9.5<br/>entropy = 1.424<br/>samples = 681<br/>value = [176, 428, 43, 30, 3, 1, 0, 0, 0, 0]<br/>class = One Pair>, fillcolor="#f1f29c"] ;
135 -> 247 ;
248 [label=<C4 &le; 9.5<br/>entropy = 1.424<br/>samples = 406<br/>value = [116, 248, 19, 20, 3, 0, 0, 0, 0, 0]<br/>class = One Pair>, fillcolor="#f2f3a5"] ;
247 -> 248 ;
249 [label=<C2 &le; 5.5<br/>entropy = 1.515<br/>samples = 232<br/>value = [63, 138, 19, 9, 3, 0, 0, 0, 0, 0]<br/>class = One Pair>, fillcolor="#f2f3a7"] ;
248 -> 249 ;
250 [label=<C4 &le; 5.5<br/>entropy = 1.658<br/>samples = 66<br/>value = [13, 39, 9, 2, 3, 0, 0, 0, 0, 0]<br/>class = One Pair>, fillcolor="#f1f29e"] ;
249 -> 250 ;
251 [label=<S1 &le; 3.5<br/>entropy = 1.458<br/>samples = 20<br/>value = [0, 8, 9, 0, 3, 0, 0, 0, 0, 0]<br/>class = Two Pairs>, fillcolor="#f4fdef"] ;
250 -> 251 ;
252 [label="(...)", fillcolor="#C0C0C0"] ;
251 -> 252 ;
265 [label="(...)", fillcolor="#C0C0C0"] ;
251 -> 265 ;
268 [label=<S3 &le; 2.5<br/>entropy = 1.096<br/>samples = 46<br/>value = [13, 31, 0, 2, 0, 0, 0, 0, 0, 0]<br/>class = One Pair>, fillcolor="#eff193"] ;
250 -> 268 ;
269 [label="(...)", fillcolor="#C0C0C0"] ;
268 -> 269 ;
288 [label="(...)", fillcolor="#C0C0C0"] ;
268 -> 288 ;
297 [label=<C4 &le; 5.5<br/>entropy = 1.403<br/>samples = 166<br/>value = [50, 99, 10, 7, 0, 0, 0, 0, 0, 0]<br/>class = One Pair>, fillcolor="#f3f4ab"] ;
249 -> 297 ;
298 [label=<C3 &le; 2.5<br/>entropy = 0.959<br/>samples = 65<br/>value = [18, 46, 0, 1, 0, 0, 0, 0, 0, 0]<br/>class = One Pair>, fillcolor="#eef089"] ;
297 -> 298 ;
299 [label="(...)", fillcolor="#C0C0C0"] ;
298 -> 299 ;
322 [label="(...)", fillcolor="#C0C0C0"] ;
298 -> 322 ;
337 [label=<S3 &le; 1.5<br/>entropy = 1.586<br/>samples = 101<br/>value = [32, 53, 10, 6, 0, 0, 0, 0, 0, 0]<br/>class = One Pair>, fillcolor="#f6f7c3"] ;
297 -> 337 ;
338 [label="(...)", fillcolor="#C0C0C0"] ;
337 -> 338 ;
359 [label="(...)", fillcolor="#C0C0C0"] ;
337 -> 359 ;
430 [label=<S1 &le; 2.5<br/>entropy = 1.192<br/>samples = 174<br/>value = [53, 110, 0, 11, 0, 0, 0, 0, 0, 0]<br/>class = One Pair>, fillcolor="#f1f3a2"] ;
248 -> 430 ;
431 [label=<C4 &le; 10.5<br/>entropy = 1.309<br/>samples = 92<br/>value = [33, 51, 0, 8, 0, 0, 0, 0, 0, 0]<br/>class = One Pair>, fillcolor="#f6f7c3"] ;
430 -> 431 ;
432 [label=<S5 &le; 3.5<br/>entropy = 1.371<br/>samples = 20<br/>value = [4, 12, 0, 4, 0, 0, 0, 0, 0, 0]<br/>class = One Pair>, fillcolor="#f0f29c"] ;
431 -> 432 ;
433 [label="(...)", fillcolor="#C0C0C0"] ;
432 -> 433 ;
440 [label="(...)", fillcolor="#C0C0C0"] ;
432 -> 440 ;
445 [label=<C4 &le; 11.5<br/>entropy = 1.239<br/>samples = 72<br/>value = [29, 39, 0, 4, 0, 0, 0, 0, 0, 0]<br/>class = One Pair>, fillcolor="#f8f9d1"] ;
431 -> 445 ;
446 [label="(...)", fillcolor="#C0C0C0"] ;
445 -> 446 ;
463 [label="(...)", fillcolor="#C0C0C0"] ;
445 -> 463 ;
500 [label=<C4 &le; 11.5<br/>entropy = 1.013<br/>samples = 82<br/>value = [20, 59, 0, 3, 0, 0, 0, 0, 0, 0]<br/>class = One Pair>, fillcolor="#edef82"] ;
430 -> 500 ;
501 [label=<S2 &le; 1.5<br/>entropy = 0.675<br/>samples = 45<br/>value = [8, 37, 0, 0, 0, 0, 0, 0, 0, 0]<br/>class = One Pair>, fillcolor="#e8eb64"] ;
500 -> 501 ;
502 [label="(...)", fillcolor="#C0C0C0"] ;
501 -> 502 ;
503 [label="(...)", fillcolor="#C0C0C0"] ;
501 -> 503 ;
530 [label=<S2 &le; 1.5<br/>entropy = 1.267<br/>samples = 37<br/>value = [12, 22, 0, 3, 0, 0, 0, 0, 0, 0]<br/>class = One Pair>, fillcolor="#f3f5b0"] ;
500 -> 530 ;
531 [label="(...)", fillcolor="#C0C0C0"] ;
530 -> 531 ;
540 [label="(...)", fillcolor="#C0C0C0"] ;
530 -> 540 ;
563 [label=<C4 &le; 9.5<br/>entropy = 1.39<br/>samples = 275<br/>value = [60, 180, 24, 10, 0, 1, 0, 0, 0, 0]<br/>class = One Pair>, fillcolor="#eff090"] ;
247 -> 563 ;
564 [label=<S2 &le; 1.5<br/>entropy = 1.055<br/>samples = 170<br/>value = [39, 122, 0, 9, 0, 0, 0, 0, 0, 0]<br/>class = One Pair>, fillcolor="#edef82"] ;
563 -> 564 ;
565 [label=<C2 &le; 10.5<br/>entropy = 0.713<br/>samples = 46<br/>value = [9, 37, 0, 0, 0, 0, 0, 0, 0, 0]<br/>class = One Pair>, fillcolor="#e9eb69"] ;
564 -> 565 ;
566 [label=<entropy = 0.0<br/>samples = 12<br/>value = [0, 12, 0, 0, 0, 0, 0, 0, 0, 0]<br/>class = One Pair>, fillcolor="#e2e539"] ;
565 -> 566 ;
567 [label=<C4 &le; 4.5<br/>entropy = 0.834<br/>samples = 34<br/>value = [9, 25, 0, 0, 0, 0, 0, 0, 0, 0]<br/>class = One Pair>, fillcolor="#ecee80"] ;
565 -> 567 ;
568 [label="(...)", fillcolor="#C0C0C0"] ;
567 -> 568 ;
575 [label="(...)", fillcolor="#C0C0C0"] ;
567 -> 575 ;
588 [label=<C2 &le; 10.5<br/>entropy = 1.143<br/>samples = 124<br/>value = [30, 85, 0, 9, 0, 0, 0, 0, 0, 0]<br/>class = One Pair>, fillcolor="#eef08b"] ;
564 -> 588 ;
589 [label=<S5 &le; 2.5<br/>entropy = 1.146<br/>samples = 34<br/>value = [14, 19, 0, 1, 0, 0, 0, 0, 0, 0]<br/>class = One Pair>, fillcolor="#f8f8ce"] ;
588 -> 589 ;
590 [label="(...)", fillcolor="#C0C0C0"] ;
589 -> 590 ;
605 [label="(...)", fillcolor="#C0C0C0"] ;
589 -> 605 ;
618 [label=<S3 &le; 2.5<br/>entropy = 1.082<br/>samples = 90<br/>value = [16, 66, 0, 8, 0, 0, 0, 0, 0, 0]<br/>class = One Pair>, fillcolor="#ebed79"] ;
588 -> 618 ;
619 [label="(...)", fillcolor="#C0C0C0"] ;
618 -> 619 ;
662 [label="(...)", fillcolor="#C0C0C0"] ;
618 -> 662 ;
679 [label=<C4 &le; 11.5<br/>entropy = 1.552<br/>samples = 105<br/>value = [21, 58, 24, 1, 0, 1, 0, 0, 0, 0]<br/>class = One Pair>, fillcolor="#f3f4ac"] ;
563 -> 679 ;
680 [label=<C2 &le; 11.5<br/>entropy = 1.636<br/>samples = 52<br/>value = [7, 26, 17, 1, 0, 1, 0, 0, 0, 0]<br/>class = One Pair>, fillcolor="#f8f8cc"] ;
679 -> 680 ;
681 [label=<C1 &le; 1.5<br/>entropy = 1.417<br/>samples = 30<br/>value = [2, 10, 17, 1, 0, 0, 0, 0, 0, 0]<br/>class = Two Pairs>, fillcolor="#d1f6ba"] ;
680 -> 681 ;
682 [label="(...)", fillcolor="#C0C0C0"] ;
681 -> 682 ;
697 [label="(...)", fillcolor="#C0C0C0"] ;
681 -> 697 ;
710 [label=<S1 &le; 1.5<br/>entropy = 1.023<br/>samples = 22<br/>value = [5, 16, 0, 0, 0, 1, 0, 0, 0, 0]<br/>class = One Pair>, fillcolor="#ecee7f"] ;
680 -> 710 ;
711 [label="(...)", fillcolor="#C0C0C0"] ;
710 -> 711 ;
714 [label="(...)", fillcolor="#C0C0C0"] ;
710 -> 714 ;
727 [label=<C2 &le; 11.5<br/>entropy = 1.333<br/>samples = 53<br/>value = [14, 32, 7, 0, 0, 0, 0, 0, 0, 0]<br/>class = One Pair>, fillcolor="#f2f3a4"] ;
679 -> 727 ;
728 [label=<S3 &le; 3.5<br/>entropy = 0.971<br/>samples = 30<br/>value = [12, 18, 0, 0, 0, 0, 0, 0, 0, 0]<br/>class = One Pair>, fillcolor="#f5f6bd"] ;
727 -> 728 ;
729 [label="(...)", fillcolor="#C0C0C0"] ;
728 -> 729 ;
746 [label="(...)", fillcolor="#C0C0C0"] ;
728 -> 746 ;
747 [label=<S1 &le; 1.5<br/>entropy = 1.265<br/>samples = 23<br/>value = [2, 14, 7, 0, 0, 0, 0, 0, 0, 0]<br/>class = One Pair>, fillcolor="#f2f4a8"] ;
727 -> 747 ;
748 [label="(...)", fillcolor="#C0C0C0"] ;
747 -> 748 ;
755 [label="(...)", fillcolor="#C0C0C0"] ;
747 -> 755 ;
764 [label=<C2 &le; 3.5<br/>entropy = 1.46<br/>samples = 4107<br/>value = [1755, 1978, 262, 87, 6, 10, 5, 3, 1, 0]<br/>class = One Pair>, fillcolor="#fcfdec"] ;
2 -> 764 ;
765 [label=<C4 &le; 3.5<br/>entropy = 1.516<br/>samples = 805<br/>value = [164, 510, 78, 47, 1, 1, 0, 3, 1, 0]<br/>class = One Pair>, fillcolor="#eff194"] ;
764 -> 765 ;
766 [label=<C5 &le; 9.5<br/>entropy = 1.428<br/>samples = 160<br/>value = [0, 94, 45, 18, 0, 0, 0, 3, 0, 0]<br/>class = One Pair>, fillcolor="#f3f4ab"] ;
765 -> 766 ;
767 [label=<S1 &le; 3.5<br/>entropy = 1.264<br/>samples = 94<br/>value = [0, 57, 29, 8, 0, 0, 0, 0, 0, 0]<br/>class = One Pair>, fillcolor="#f3f4aa"] ;
766 -> 767 ;
768 [label=<S3 &le; 2.5<br/>entropy = 1.359<br/>samples = 71<br/>value = [0, 39, 24, 8, 0, 0, 0, 0, 0, 0]<br/>class = One Pair>, fillcolor="#f6f7c0"] ;
767 -> 768 ;
769 [label=<C5 &le; 5.5<br/>entropy = 1.2<br/>samples = 39<br/>value = [0, 23, 14, 2, 0, 0, 0, 0, 0, 0]<br/>class = One Pair>, fillcolor="#f5f6b8"] ;
768 -> 769 ;
770 [label=<S4 &le; 3.5<br/>entropy = 1.429<br/>samples = 15<br/>value = [0, 6, 7, 2, 0, 0, 0, 0, 0, 0]<br/>class = Two Pairs>, fillcolor="#f0fce9"] ;
769 -> 770 ;
771 [label="(...)", fillcolor="#C0C0C0"] ;
770 -> 771 ;
780 [label="(...)", fillcolor="#C0C0C0"] ;
770 -> 780 ;
785 [label=<C2 &le; 1.5<br/>entropy = 0.871<br/>samples = 24<br/>value = [0, 17, 7, 0, 0, 0, 0, 0, 0, 0]<br/>class = One Pair>, fillcolor="#eef08b"] ;
769 -> 785 ;
786 [label="(...)", fillcolor="#C0C0C0"] ;
785 -> 786 ;
787 [label="(...)", fillcolor="#C0C0C0"] ;
785 -> 787 ;
800 [label=<C2 &le; 1.5<br/>entropy = 1.477<br/>samples = 32<br/>value = [0, 16, 10, 6, 0, 0, 0, 0, 0, 0]<br/>class = One Pair>, fillcolor="#f7f8c9"] ;
768 -> 800 ;
801 [label=<C3 &le; 2.5<br/>entropy = 1.493<br/>samples = 14<br/>value = [0, 4, 7, 3, 0, 0, 0, 0, 0, 0]<br/>class = Two Pairs>, fillcolor="#d7f7c4"] ;
800 -> 801 ;
802 [label="(...)", fillcolor="#C0C0C0"] ;
801 -> 802 ;
807 [label="(...)", fillcolor="#C0C0C0"] ;
801 -> 807 ;
816 [label=<C3 &le; 2.5<br/>entropy = 1.252<br/>samples = 18<br/>value = [0, 12, 3, 3, 0, 0, 0, 0, 0, 0]<br/>class = One Pair>, fillcolor="#eeef88"] ;
800 -> 816 ;
817 [label="(...)", fillcolor="#C0C0C0"] ;
816 -> 817 ;
830 [label="(...)", fillcolor="#C0C0C0"] ;
816 -> 830 ;
831 [label=<C2 &le; 1.5<br/>entropy = 0.755<br/>samples = 23<br/>value = [0, 18, 5, 0, 0, 0, 0, 0, 0, 0]<br/>class = One Pair>, fillcolor="#eaec70"] ;
767 -> 831 ;
832 [label=<entropy = 0.0<br/>samples = 5<br/>value = [0, 5, 0, 0, 0, 0, 0, 0, 0, 0]<br/>class = One Pair>, fillcolor="#e2e539"] ;
831 -> 832 ;
833 [label=<S5 &le; 2.5<br/>entropy = 0.852<br/>samples = 18<br/>value = [0, 13, 5, 0, 0, 0, 0, 0, 0, 0]<br/>class = One Pair>, fillcolor="#edef85"] ;
831 -> 833 ;
834 [label=<C1 &le; 2.5<br/>entropy = 1.0<br/>samples = 8<br/>value = [0, 4, 4, 0, 0, 0, 0, 0, 0, 0]<br/>class = One Pair>, fillcolor="#ffffff"] ;
833 -> 834 ;
835 [label="(...)", fillcolor="#C0C0C0"] ;
834 -> 835 ;
838 [label="(...)", fillcolor="#C0C0C0"] ;
834 -> 838 ;
839 [label=<C4 &le; 2.5<br/>entropy = 0.469<br/>samples = 10<br/>value = [0, 9, 1, 0, 0, 0, 0, 0, 0, 0]<br/>class = One Pair>, fillcolor="#e5e84f"] ;
833 -> 839 ;
840 [label="(...)", fillcolor="#C0C0C0"] ;
839 -> 840 ;
841 [label="(...)", fillcolor="#C0C0C0"] ;
839 -> 841 ;
844 [label=<S2 &le; 1.5<br/>entropy = 1.579<br/>samples = 66<br/>value = [0, 37, 16, 10, 0, 0, 0, 3, 0, 0]<br/>class = One Pair>, fillcolor="#f3f4ac"] ;
766 -> 844 ;
845 [label=<S3 &le; 3.5<br/>entropy = 1.089<br/>samples = 14<br/>value = [0, 11, 1, 1, 0, 0, 0, 1, 0, 0]<br/>class = One Pair>, fillcolor="#e9eb67"] ;
844 -> 845 ;
846 [label=<entropy = 0.0<br/>samples = 9<br/>value = [0, 9, 0, 0, 0, 0, 0, 0, 0, 0]<br/>class = One Pair>, fillcolor="#e2e539"] ;
845 -> 846 ;
847 [label=<C1 &le; 1.5<br/>entropy = 1.922<br/>samples = 5<br/>value = [0, 2, 1, 1, 0, 0, 0, 1, 0, 0]<br/>class = One Pair>, fillcolor="#f8f8ce"] ;
845 -> 847 ;
848 [label=<C4 &le; 2.0<br/>entropy = 1.0<br/>samples = 2<br/>value = [0, 0, 0, 1, 0, 0, 0, 1, 0, 0]<br/>class = Three of a Kind>, fillcolor="#ffffff"] ;
847 -> 848 ;
849 [label="(...)", fillcolor="#C0C0C0"] ;
848 -> 849 ;
850 [label="(...)", fillcolor="#C0C0C0"] ;
848 -> 850 ;
851 [label=<C4 &le; 2.0<br/>entropy = 0.918<br/>samples = 3<br/>value = [0, 2, 1, 0, 0, 0, 0, 0, 0, 0]<br/>class = One Pair>, fillcolor="#f0f29c"] ;
847 -> 851 ;
852 [label="(...)", fillcolor="#C0C0C0"] ;
851 -> 852 ;
853 [label="(...)", fillcolor="#C0C0C0"] ;
851 -> 853 ;
854 [label=<S3 &le; 3.5<br/>entropy = 1.636<br/>samples = 52<br/>value = [0, 26, 15, 9, 0, 0, 0, 2, 0, 0]<br/>class = One Pair>, fillcolor="#f6f7c4"] ;
844 -> 854 ;
855 [label=<S3 &le; 1.5<br/>entropy = 1.654<br/>samples = 39<br/>value = [0, 18, 11, 9, 0, 0, 0, 1, 0, 0]<br/>class = One Pair>, fillcolor="#f8f8ce"] ;
854 -> 855 ;
856 [label=<C3 &le; 2.5<br/>entropy = 1.411<br/>samples = 18<br/>value = [0, 11, 5, 1, 0, 0, 0, 1, 0, 0]<br/>class = One Pair>, fillcolor="#f2f3a4"] ;
855 -> 856 ;
857 [label="(...)", fillcolor="#C0C0C0"] ;
856 -> 857 ;
864 [label="(...)", fillcolor="#C0C0C0"] ;
856 -> 864 ;
871 [label=<S4 &le; 2.5<br/>entropy = 1.575<br/>samples = 21<br/>value = [0, 7, 6, 8, 0, 0, 0, 0, 0, 0]<br/>class = Three of a Kind>, fillcolor="#f1fdf4"] ;
855 -> 871 ;
872 [label="(...)", fillcolor="#C0C0C0"] ;
871 -> 872 ;
883 [label="(...)", fillcolor="#C0C0C0"] ;
871 -> 883 ;
896 [label=<S5 &le; 2.5<br/>entropy = 1.239<br/>samples = 13<br/>value = [0, 8, 4, 0, 0, 0, 0, 1, 0, 0]<br/>class = One Pair>, fillcolor="#f2f3a7"] ;
854 -> 896 ;
897 [label=<C2 &le; 2.5<br/>entropy = 1.459<br/>samples = 6<br/>value = [0, 2, 3, 0, 0, 0, 0, 1, 0, 0]<br/>class = Two Pairs>, fillcolor="#def8ce"] ;
896 -> 897 ;
898 [label="(...)", fillcolor="#C0C0C0"] ;
897 -> 898 ;
903 [label="(...)", fillcolor="#C0C0C0"] ;
897 -> 903 ;
906 [label=<C2 &le; 1.5<br/>entropy = 0.592<br/>samples = 7<br/>value = [0, 6, 1, 0, 0, 0, 0, 0, 0, 0]<br/>class = One Pair>, fillcolor="#e7e95a"] ;
896 -> 906 ;
907 [label="(...)", fillcolor="#C0C0C0"] ;
906 -> 907 ;
908 [label="(...)", fillcolor="#C0C0C0"] ;
906 -> 908 ;
909 [label=<C5 &le; 5.5<br/>entropy = 1.374<br/>samples = 645<br/>value = [164, 416, 33, 29, 1, 1, 0, 0, 1, 0]<br/>class = One Pair>, fillcolor="#f0f197"] ;
765 -> 909 ;
910 [label=<C4 &le; 5.5<br/>entropy = 1.627<br/>samples = 114<br/>value = [35, 62, 5, 10, 1, 0, 0, 0, 1, 0]<br/>class = One Pair>, fillcolor="#f5f6bb"] ;
909 -> 910 ;
911 [label=<C2 &le; 1.5<br/>entropy = 1.774<br/>samples = 16<br/>value = [0, 8, 5, 1, 1, 0, 0, 0, 1, 0]<br/>class = One Pair>, fillcolor="#f7f8c9"] ;
910 -> 911 ;
912 [label=<S2 &le; 2.5<br/>entropy = 0.592<br/>samples = 7<br/>value = [0, 6, 1, 0, 0, 0, 0, 0, 0, 0]<br/>class = One Pair>, fillcolor="#e7e95a"] ;
911 -> 912 ;
913 [label=<entropy = 0.0<br/>samples = 5<br/>value = [0, 5, 0, 0, 0, 0, 0, 0, 0, 0]<br/>class = One Pair>, fillcolor="#e2e539"] ;
912 -> 913 ;
914 [label=<S3 &le; 2.5<br/>entropy = 1.0<br/>samples = 2<br/>value = [0, 1, 1, 0, 0, 0, 0, 0, 0, 0]<br/>class = One Pair>, fillcolor="#ffffff"] ;
912 -> 914 ;
915 [label="(...)", fillcolor="#C0C0C0"] ;
914 -> 915 ;
916 [label="(...)", fillcolor="#C0C0C0"] ;
914 -> 916 ;
917 [label=<S4 &le; 2.5<br/>entropy = 2.059<br/>samples = 9<br/>value = [0, 2, 4, 1, 1, 0, 0, 0, 1, 0]<br/>class = Two Pairs>, fillcolor="#d9f8c6"] ;
911 -> 917 ;
918 [label=<S3 &le; 2.5<br/>entropy = 0.811<br/>samples = 4<br/>value = [0, 0, 3, 0, 0, 0, 0, 0, 1, 0]<br/>class = Two Pairs>, fillcolor="#a7ee7b"] ;
917 -> 918 ;
919 [label="(...)", fillcolor="#C0C0C0"] ;
918 -> 919 ;
920 [label="(...)", fillcolor="#C0C0C0"] ;
918 -> 920 ;
921 [label=<S1 &le; 2.5<br/>entropy = 1.922<br/>samples = 5<br/>value = [0, 2, 1, 1, 1, 0, 0, 0, 0, 0]<br/>class = One Pair>, fillcolor="#f8f8ce"] ;
917 -> 921 ;
922 [label="(...)", fillcolor="#C0C0C0"] ;
921 -> 922 ;
925 [label="(...)", fillcolor="#C0C0C0"] ;
921 -> 925 ;
928 [label=<S5 &le; 1.5<br/>entropy = 1.321<br/>samples = 98<br/>value = [35, 54, 0, 9, 0, 0, 0, 0, 0, 0]<br/>class = One Pair>, fillcolor="#f6f7c3"] ;
910 -> 928 ;
929 [label=<S2 &le; 3.5<br/>entropy = 1.506<br/>samples = 30<br/>value = [14, 10, 0, 6, 0, 0, 0, 0, 0, 0]<br/>class = Nothing in hand>, fillcolor="#fae6d7"] ;
928 -> 929 ;
930 [label=<S2 &le; 1.5<br/>entropy = 1.549<br/>samples = 26<br/>value = [10, 10, 0, 6, 0, 0, 0, 0, 0, 0]<br/>class = Nothing in hand>, fillcolor="#ffffff"] ;
929 -> 930 ;
931 [label="(...)", fillcolor="#C0C0C0"] ;
930 -> 931 ;
936 [label="(...)", fillcolor="#C0C0C0"] ;
930 -> 936 ;
955 [label=<entropy = 0.0<br/>samples = 4<br/>value = [4, 0, 0, 0, 0, 0, 0, 0, 0, 0]<br/>class = Nothing in hand>, fillcolor="#e58139"] ;
929 -> 955 ;
956 [label=<C4 &le; 10.5<br/>entropy = 1.129<br/>samples = 68<br/>value = [21, 44, 0, 3, 0, 0, 0, 0, 0, 0]<br/>class = One Pair>, fillcolor="#f1f29e"] ;
928 -> 956 ;
957 [label=<S3 &le; 3.5<br/>entropy = 1.192<br/>samples = 46<br/>value = [18, 26, 0, 2, 0, 0, 0, 0, 0, 0]<br/>class = One Pair>, fillcolor="#f7f8c6"] ;
956 -> 957 ;
958 [label="(...)", fillcolor="#C0C0C0"] ;
957 -> 958 ;
981 [label="(...)", fillcolor="#C0C0C0"] ;
957 -> 981 ;
988 [label=<C4 &le; 11.5<br/>entropy = 0.832<br/>samples = 22<br/>value = [3, 18, 0, 1, 0, 0, 0, 0, 0, 0]<br/>class = One Pair>, fillcolor="#e8ea63"] ;
956 -> 988 ;
989 [label="(...)", fillcolor="#C0C0C0"] ;
988 -> 989 ;
992 [label="(...)", fillcolor="#C0C0C0"] ;
988 -> 992 ;
1003 [label=<C4 &le; 10.5<br/>entropy = 1.299<br/>samples = 531<br/>value = [129, 354, 28, 19, 0, 1, 0, 0, 0, 0]<br/>class = One Pair>, fillcolor="#eff090"] ;
909 -> 1003 ;
1004 [label=<C5 &le; 10.5<br/>entropy = 1.299<br/>samples = 381<br/>value = [90, 256, 15, 19, 0, 1, 0, 0, 0, 0]<br/>class = One Pair>, fillcolor="#eef08e"] ;
1003 -> 1004 ;
1005 [label=<S3 &le; 3.5<br/>entropy = 1.405<br/>samples = 238<br/>value = [57, 153, 15, 12, 0, 1, 0, 0, 0, 0]<br/>class = One Pair>, fillcolor="#f0f196"] ;
1004 -> 1005 ;
1006 [label=<C4 &le; 8.5<br/>entropy = 1.541<br/>samples = 177<br/>value = [47, 104, 13, 12, 0, 1, 0, 0, 0, 0]<br/>class = One Pair>, fillcolor="#f2f4a8"] ;
1005 -> 1006 ;
1007 [label="(...)", fillcolor="#C0C0C0"] ;
1006 -> 1007 ;
1116 [label="(...)", fillcolor="#C0C0C0"] ;
1006 -> 1116 ;
1159 [label=<C1 &le; 2.5<br/>entropy = 0.843<br/>samples = 61<br/>value = [10, 49, 2, 0, 0, 0, 0, 0, 0, 0]<br/>class = One Pair>, fillcolor="#e9eb68"] ;
1005 -> 1159 ;
1160 [label="(...)", fillcolor="#C0C0C0"] ;
1159 -> 1160 ;
1179 [label="(...)", fillcolor="#C0C0C0"] ;
1159 -> 1179 ;
1190 [label=<S4 &le; 1.5<br/>entropy = 1.042<br/>samples = 143<br/>value = [33, 103, 0, 7, 0, 0, 0, 0, 0, 0]<br/>class = One Pair>, fillcolor="#edee81"] ;
1004 -> 1190 ;
1191 [label=<C3 &le; 2.5<br/>entropy = 0.533<br/>samples = 33<br/>value = [4, 29, 0, 0, 0, 0, 0, 0, 0, 0]<br/>class = One Pair>, fillcolor="#e6e954"] ;
1190 -> 1191 ;
1192 [label="(...)", fillcolor="#C0C0C0"] ;
1191 -> 1192 ;
1203 [label="(...)", fillcolor="#C0C0C0"] ;
1191 -> 1203 ;
1204 [label=<C1 &le; 2.5<br/>entropy = 1.145<br/>samples = 110<br/>value = [29, 74, 0, 7, 0, 0, 0, 0, 0, 0]<br/>class = One Pair>, fillcolor="#eff191"] ;
1190 -> 1204 ;
1205 [label="(...)", fillcolor="#C0C0C0"] ;
1204 -> 1205 ;
1254 [label="(...)", fillcolor="#C0C0C0"] ;
1204 -> 1254 ;
1275 [label=<C5 &le; 10.5<br/>entropy = 1.212<br/>samples = 150<br/>value = [39, 98, 13, 0, 0, 0, 0, 0, 0, 0]<br/>class = One Pair>, fillcolor="#f0f196"] ;
1003 -> 1275 ;
1276 [label=<C2 &le; 2.5<br/>entropy = 0.845<br/>samples = 99<br/>value = [27, 72, 0, 0, 0, 0, 0, 0, 0, 0]<br/>class = One Pair>, fillcolor="#edef83"] ;
1275 -> 1276 ;
1277 [label=<S2 &le; 1.5<br/>entropy = 0.674<br/>samples = 62<br/>value = [11, 51, 0, 0, 0, 0, 0, 0, 0, 0]<br/>class = One Pair>, fillcolor="#e8eb64"] ;
1276 -> 1277 ;
1278 [label="(...)", fillcolor="#C0C0C0"] ;
1277 -> 1278 ;
1291 [label="(...)", fillcolor="#C0C0C0"] ;
1277 -> 1291 ;
1308 [label=<C1 &le; 2.5<br/>entropy = 0.987<br/>samples = 37<br/>value = [16, 21, 0, 0, 0, 0, 0, 0, 0, 0]<br/>class = One Pair>, fillcolor="#f8f9d0"] ;
1276 -> 1308 ;
1309 [label="(...)", fillcolor="#C0C0C0"] ;
1308 -> 1309 ;
1326 [label="(...)", fillcolor="#C0C0C0"] ;
1308 -> 1326 ;
1327 [label=<S3 &le; 2.5<br/>entropy = 1.489<br/>samples = 51<br/>value = [12, 26, 13, 0, 0, 0, 0, 0, 0, 0]<br/>class = One Pair>, fillcolor="#f5f6bb"] ;
1275 -> 1327 ;
1328 [label=<C2 &le; 2.5<br/>entropy = 1.388<br/>samples = 25<br/>value = [3, 13, 9, 0, 0, 0, 0, 0, 0, 0]<br/>class = One Pair>, fillcolor="#f8f8ce"] ;
1327 -> 1328 ;
1329 [label="(...)", fillcolor="#C0C0C0"] ;
1328 -> 1329 ;
1344 [label="(...)", fillcolor="#C0C0C0"] ;
1328 -> 1344 ;
1355 [label=<C1 &le; 2.5<br/>entropy = 1.445<br/>samples = 26<br/>value = [9, 13, 4, 0, 0, 0, 0, 0, 0, 0]<br/>class = One Pair>, fillcolor="#f8f9d0"] ;
1327 -> 1355 ;
1356 [label="(...)", fillcolor="#C0C0C0"] ;
1355 -> 1356 ;
1371 [label="(...)", fillcolor="#C0C0C0"] ;
1355 -> 1371 ;
1376 [label=<C4 &le; 3.5<br/>entropy = 1.388<br/>samples = 3302<br/>value = [1591, 1468, 184, 40, 5, 9, 5, 0, 0, 0]<br/>class = Nothing in hand>, fillcolor="#fdf7f2"] ;
764 -> 1376 ;
1377 [label=<C5 &le; 4.5<br/>entropy = 1.339<br/>samples = 710<br/>value = [199, 451, 25, 32, 2, 0, 1, 0, 0, 0]<br/>class = One Pair>, fillcolor="#f1f29d"] ;
1376 -> 1377 ;
1378 [label=<C2 &le; 5.5<br/>entropy = 1.312<br/>samples = 57<br/>value = [11, 40, 3, 1, 2, 0, 0, 0, 0, 0]<br/>class = One Pair>, fillcolor="#edef82"] ;
1377 -> 1378 ;
1379 [label=<C2 &le; 4.5<br/>entropy = 1.557<br/>samples = 7<br/>value = [0, 2, 3, 0, 2, 0, 0, 0, 0, 0]<br/>class = Two Pairs>, fillcolor="#e5fad7"] ;
1378 -> 1379 ;
1380 [label=<S2 &le; 3.5<br/>entropy = 0.811<br/>samples = 4<br/>value = [0, 1, 3, 0, 0, 0, 0, 0, 0, 0]<br/>class = Two Pairs>, fillcolor="#a7ee7b"] ;
1379 -> 1380 ;
1381 [label=<entropy = 0.0<br/>samples = 3<br/>value = [0, 0, 3, 0, 0, 0, 0, 0, 0, 0]<br/>class = Two Pairs>, fillcolor="#7be539"] ;
1380 -> 1381 ;
1382 [label=<entropy = 0.0<br/>samples = 1<br/>value = [0, 1, 0, 0, 0, 0, 0, 0, 0, 0]<br/>class = One Pair>, fillcolor="#e2e539"] ;
1380 -> 1382 ;
1383 [label=<S5 &le; 2.5<br/>entropy = 0.918<br/>samples = 3<br/>value = [0, 1, 0, 0, 2, 0, 0, 0, 0, 0]<br/>class = Straight>, fillcolor="#9cf2e2"] ;
1379 -> 1383 ;
1384 [label=<entropy = 0.0<br/>samples = 2<br/>value = [0, 0, 0, 0, 2, 0, 0, 0, 0, 0]<br/>class = Straight>, fillcolor="#39e5c5"] ;
1383 -> 1384 ;
1385 [label=<entropy = 0.0<br/>samples = 1<br/>value = [0, 1, 0, 0, 0, 0, 0, 0, 0, 0]<br/>class = One Pair>, fillcolor="#e2e539"] ;
1383 -> 1385 ;
1386 [label=<S5 &le; 2.5<br/>entropy = 0.894<br/>samples = 50<br/>value = [11, 38, 0, 1, 0, 0, 0, 0, 0, 0]<br/>class = One Pair>, fillcolor="#ebed76"] ;
1378 -> 1386 ;
1387 [label=<S2 &le; 3.5<br/>entropy = 1.125<br/>samples = 27<br/>value = [9, 17, 0, 1, 0, 0, 0, 0, 0, 0]<br/>class = One Pair>, fillcolor="#f2f3a7"] ;
1386 -> 1387 ;
1388 [label=<C3 &le; 2.5<br/>entropy = 0.992<br/>samples = 20<br/>value = [4, 15, 0, 1, 0, 0, 0, 0, 0, 0]<br/>class = One Pair>, fillcolor="#ebed77"] ;
1387 -> 1388 ;
1389 [label="(...)", fillcolor="#C0C0C0"] ;
1388 -> 1389 ;
1400 [label="(...)", fillcolor="#C0C0C0"] ;
1388 -> 1400 ;
1401 [label=<C4 &le; 2.5<br/>entropy = 0.863<br/>samples = 7<br/>value = [5, 2, 0, 0, 0, 0, 0, 0, 0, 0]<br/>class = Nothing in hand>, fillcolor="#efb388"] ;
1387 -> 1401 ;
1402 [label="(...)", fillcolor="#C0C0C0"] ;
1401 -> 1402 ;
1403 [label="(...)", fillcolor="#C0C0C0"] ;
1401 -> 1403 ;
1406 [label=<S3 &le; 1.5<br/>entropy = 0.426<br/>samples = 23<br/>value = [2, 21, 0, 0, 0, 0, 0, 0, 0, 0]<br/>class = One Pair>, fillcolor="#e5e74c"] ;
1386 -> 1406 ;
1407 [label=<C3 &le; 2.5<br/>entropy = 0.764<br/>samples = 9<br/>value = [2, 7, 0, 0, 0, 0, 0, 0, 0, 0]<br/>class = One Pair>, fillcolor="#eaec72"] ;
1406 -> 1407 ;
1408 [label="(...)", fillcolor="#C0C0C0"] ;
1407 -> 1408 ;
1415 [label="(...)", fillcolor="#C0C0C0"] ;
1407 -> 1415 ;
1416 [label=<entropy = 0.0<br/>samples = 14<br/>value = [0, 14, 0, 0, 0, 0, 0, 0, 0, 0]<br/>class = One Pair>, fillcolor="#e2e539"] ;
1406 -> 1416 ;
1417 [label=<S3 &le; 1.5<br/>entropy = 1.325<br/>samples = 653<br/>value = [188, 411, 22, 31, 0, 0, 1, 0, 0, 0]<br/>class = One Pair>, fillcolor="#f1f3a0"] ;
1377 -> 1417 ;
1418 [label=<S1 &le; 1.5<br/>entropy = 1.31<br/>samples = 164<br/>value = [37, 109, 4, 14, 0, 0, 0, 0, 0, 0]<br/>class = One Pair>, fillcolor="#eff08f"] ;
1417 -> 1418 ;
1419 [label=<S5 &le; 2.5<br/>entropy = 0.907<br/>samples = 31<br/>value = [10, 21, 0, 0, 0, 0, 0, 0, 0, 0]<br/>class = One Pair>, fillcolor="#f0f197"] ;
1418 -> 1419 ;
1420 [label=<C4 &le; 1.5<br/>entropy = 0.98<br/>samples = 12<br/>value = [7, 5, 0, 0, 0, 0, 0, 0, 0, 0]<br/>class = Nothing in hand>, fillcolor="#f8dbc6"] ;
1419 -> 1420 ;
1421 [label="(...)", fillcolor="#C0C0C0"] ;
1420 -> 1421 ;
1424 [label="(...)", fillcolor="#C0C0C0"] ;
1420 -> 1424 ;
1429 [label=<C3 &le; 1.5<br/>entropy = 0.629<br/>samples = 19<br/>value = [3, 16, 0, 0, 0, 0, 0, 0, 0, 0]<br/>class = One Pair>, fillcolor="#e7ea5e"] ;
1419 -> 1429 ;
1430 [label="(...)", fillcolor="#C0C0C0"] ;
1429 -> 1430 ;
1437 [label="(...)", fillcolor="#C0C0C0"] ;
1429 -> 1437 ;
1438 [label=<S4 &le; 1.5<br/>entropy = 1.355<br/>samples = 133<br/>value = [27, 88, 4, 14, 0, 0, 0, 0, 0, 0]<br/>class = One Pair>, fillcolor="#eef08d"] ;
1418 -> 1438 ;
1439 [label=<S1 &le; 3.5<br/>entropy = 0.855<br/>samples = 25<br/>value = [7, 18, 0, 0, 0, 0, 0, 0, 0, 0]<br/>class = One Pair>, fillcolor="#edef86"] ;
1438 -> 1439 ;
1440 [label="(...)", fillcolor="#C0C0C0"] ;
1439 -> 1440 ;
1451 [label="(...)", fillcolor="#C0C0C0"] ;
1439 -> 1451 ;
1454 [label=<S2 &le; 3.5<br/>entropy = 1.414<br/>samples = 108<br/>value = [20, 70, 4, 14, 0, 0, 0, 0, 0, 0]<br/>class = One Pair>, fillcolor="#eff08e"] ;
1438 -> 1454 ;
1455 [label="(...)", fillcolor="#C0C0C0"] ;
1454 -> 1455 ;
1516 [label="(...)", fillcolor="#C0C0C0"] ;
1454 -> 1516 ;
1533 [label=<C5 &le; 12.5<br/>entropy = 1.315<br/>samples = 489<br/>value = [151, 302, 18, 17, 0, 0, 1, 0, 0, 0]<br/>class = One Pair>, fillcolor="#f2f3a7"] ;
1417 -> 1533 ;
1534 [label=<S1 &le; 3.5<br/>entropy = 1.322<br/>samples = 430<br/>value = [126, 270, 16, 17, 0, 0, 1, 0, 0, 0]<br/>class = One Pair>, fillcolor="#f1f3a1"] ;
1533 -> 1534 ;
1535 [label=<C1 &le; 1.5<br/>entropy = 1.365<br/>samples = 341<br/>value = [95, 214, 15, 16, 0, 0, 1, 0, 0, 0]<br/>class = One Pair>, fillcolor="#f1f29f"] ;
1534 -> 1535 ;
1536 [label="(...)", fillcolor="#C0C0C0"] ;
1535 -> 1536 ;
1583 [label="(...)", fillcolor="#C0C0C0"] ;
1535 -> 1583 ;
1706 [label=<C2 &le; 5.5<br/>entropy = 1.096<br/>samples = 89<br/>value = [31, 56, 1, 1, 0, 0, 0, 0, 0, 0]<br/>class = One Pair>, fillcolor="#f3f4aa"] ;
1534 -> 1706 ;
1707 [label="(...)", fillcolor="#C0C0C0"] ;
1706 -> 1707 ;
1720 [label="(...)", fillcolor="#C0C0C0"] ;
1706 -> 1720 ;
1769 [label=<C2 &le; 12.5<br/>entropy = 1.169<br/>samples = 59<br/>value = [25, 32, 2, 0, 0, 0, 0, 0, 0, 0]<br/>class = One Pair>, fillcolor="#f9fad6"] ;
1533 -> 1769 ;
1770 [label=<S2 &le; 3.5<br/>entropy = 0.989<br/>samples = 57<br/>value = [25, 32, 0, 0, 0, 0, 0, 0, 0, 0]<br/>class = One Pair>, fillcolor="#f9f9d4"] ;
1769 -> 1770 ;
1771 [label="(...)", fillcolor="#C0C0C0"] ;
1770 -> 1771 ;
1800 [label="(...)", fillcolor="#C0C0C0"] ;
1770 -> 1800 ;
1807 [label=<entropy = 0.0<br/>samples = 2<br/>value = [0, 0, 2, 0, 0, 0, 0, 0, 0, 0]<br/>class = Two Pairs>, fillcolor="#7be539"] ;
1769 -> 1807 ;
1808 [label=<C2 &le; 5.5<br/>entropy = 1.338<br/>samples = 2592<br/>value = [1392, 1017, 159, 8, 3, 9, 4, 0, 0, 0]<br/>class = Nothing in hand>, fillcolor="#f9e1d0"] ;
1376 -> 1808 ;
1809 [label=<C4 &le; 5.5<br/>entropy = 1.331<br/>samples = 511<br/>value = [290, 188, 25, 1, 3, 2, 2, 0, 0, 0]<br/>class = Nothing in hand>, fillcolor="#f7d7c0"] ;
1808 -> 1809 ;
1810 [label=<C5 &le; 5.5<br/>entropy = 1.526<br/>samples = 99<br/>value = [30, 55, 11, 1, 0, 0, 2, 0, 0, 0]<br/>class = One Pair>, fillcolor="#f4f6b7"] ;
1809 -> 1810 ;
1811 [label=<C3 &le; 2.5<br/>entropy = 1.186<br/>samples = 16<br/>value = [0, 12, 1, 1, 0, 0, 2, 0, 0, 0]<br/>class = One Pair>, fillcolor="#eaec72"] ;
1810 -> 1811 ;
1812 [label=<S5 &le; 2.5<br/>entropy = 1.299<br/>samples = 8<br/>value = [0, 5, 1, 0, 0, 0, 2, 0, 0, 0]<br/>class = One Pair>, fillcolor="#f0f29c"] ;
1811 -> 1812 ;
1813 [label="(...)", fillcolor="#C0C0C0"] ;
1812 -> 1813 ;
1818 [label="(...)", fillcolor="#C0C0C0"] ;
1812 -> 1818 ;
1819 [label=<S3 &le; 1.5<br/>entropy = 0.544<br/>samples = 8<br/>value = [0, 7, 0, 1, 0, 0, 0, 0, 0, 0]<br/>class = One Pair>, fillcolor="#e6e955"] ;
1811 -> 1819 ;
1820 [label="(...)", fillcolor="#C0C0C0"] ;
1819 -> 1820 ;
1823 [label="(...)", fillcolor="#C0C0C0"] ;
1819 -> 1823 ;
1824 [label=<S3 &le; 3.5<br/>entropy = 1.39<br/>samples = 83<br/>value = [30, 43, 10, 0, 0, 0, 0, 0, 0, 0]<br/>class = One Pair>, fillcolor="#f8f9ce"] ;
1810 -> 1824 ;
1825 [label=<S1 &le; 2.5<br/>entropy = 1.347<br/>samples = 61<br/>value = [17, 36, 8, 0, 0, 0, 0, 0, 0, 0]<br/>class = One Pair>, fillcolor="#f2f4aa"] ;
1824 -> 1825 ;
1826 [label="(...)", fillcolor="#C0C0C0"] ;
1825 -> 1826 ;
1855 [label="(...)", fillcolor="#C0C0C0"] ;
1825 -> 1855 ;
1878 [label=<C5 &le; 12.5<br/>entropy = 1.289<br/>samples = 22<br/>value = [13, 7, 2, 0, 0, 0, 0, 0, 0, 0]<br/>class = Nothing in hand>, fillcolor="#f5cdb0"] ;
1824 -> 1878 ;
1879 [label="(...)", fillcolor="#C0C0C0"] ;
1878 -> 1879 ;
1894 [label="(...)", fillcolor="#C0C0C0"] ;
1878 -> 1894 ;
1895 [label=<C5 &le; 5.5<br/>entropy = 1.201<br/>samples = 412<br/>value = [260, 133, 14, 0, 3, 2, 0, 0, 0, 0]<br/>class = Nothing in hand>, fillcolor="#f3c6a5"] ;
1809 -> 1895 ;
1896 [label=<C4 &le; 6.5<br/>entropy = 1.477<br/>samples = 85<br/>value = [36, 40, 6, 0, 3, 0, 0, 0, 0, 0]<br/>class = One Pair>, fillcolor="#fdfdef"] ;
1895 -> 1896 ;
1897 [label=<S3 &le; 1.5<br/>entropy = 1.539<br/>samples = 11<br/>value = [3, 5, 0, 0, 3, 0, 0, 0, 0, 0]<br/>class = One Pair>, fillcolor="#f8f8ce"] ;
1896 -> 1897 ;
1898 [label="(...)", fillcolor="#C0C0C0"] ;
1897 -> 1898 ;
1899 [label="(...)", fillcolor="#C0C0C0"] ;
1897 -> 1899 ;
1906 [label=<S4 &le; 3.5<br/>entropy = 1.324<br/>samples = 74<br/>value = [33, 35, 6, 0, 0, 0, 0, 0, 0, 0]<br/>class = One Pair>, fillcolor="#fefef5"] ;
1896 -> 1906 ;
1907 [label="(...)", fillcolor="#C0C0C0"] ;
1906 -> 1907 ;
1946 [label="(...)", fillcolor="#C0C0C0"] ;
1906 -> 1946 ;
1955 [label=<C3 &le; 2.5<br/>entropy = 1.066<br/>samples = 327<br/>value = [224, 93, 8, 0, 0, 2, 0, 0, 0, 0]<br/>class = Nothing in hand>, fillcolor="#f0b890"] ;
1895 -> 1955 ;
1956 [label=<C1 &le; 2.5<br/>entropy = 1.075<br/>samples = 224<br/>value = [148, 69, 7, 0, 0, 0, 0, 0, 0, 0]<br/>class = Nothing in hand>, fillcolor="#f2bf9a"] ;
1955 -> 1956 ;
1957 [label="(...)", fillcolor="#C0C0C0"] ;
1956 -> 1957 ;
2060 [label="(...)", fillcolor="#C0C0C0"] ;
1956 -> 2060 ;
2093 [label=<C1 &le; 2.5<br/>entropy = 0.989<br/>samples = 103<br/>value = [76, 24, 1, 0, 0, 2, 0, 0, 0, 0]<br/>class = Nothing in hand>, fillcolor="#eeac7d"] ;
1955 -> 2093 ;
2094 [label="(...)", fillcolor="#C0C0C0"] ;
2093 -> 2094 ;
2123 [label="(...)", fillcolor="#C0C0C0"] ;
2093 -> 2123 ;
2128 [label=<C4 &le; 5.5<br/>entropy = 1.334<br/>samples = 2081<br/>value = [1102, 829, 134, 7, 0, 7, 2, 0, 0, 0]<br/>class = Nothing in hand>, fillcolor="#f9e4d4"] ;
1808 -> 2128 ;
2129 [label=<C5 &le; 4.5<br/>entropy = 1.165<br/>samples = 413<br/>value = [257, 138, 17, 0, 0, 1, 0, 0, 0, 0]<br/>class = Nothing in hand>, fillcolor="#f4c8a9"] ;
2128 -> 2129 ;
2130 [label=<C4 &le; 4.5<br/>entropy = 1.424<br/>samples = 35<br/>value = [12, 18, 5, 0, 0, 0, 0, 0, 0, 0]<br/>class = One Pair>, fillcolor="#f7f8cb"] ;
2129 -> 2130 ;
2131 [label=<C2 &le; 12.5<br/>entropy = 0.874<br/>samples = 17<br/>value = [0, 12, 5, 0, 0, 0, 0, 0, 0, 0]<br/>class = One Pair>, fillcolor="#eef08b"] ;
2130 -> 2131 ;
2132 [label="(...)", fillcolor="#C0C0C0"] ;
2131 -> 2132 ;
2141 [label="(...)", fillcolor="#C0C0C0"] ;
2131 -> 2141 ;
2142 [label=<C2 &le; 6.5<br/>entropy = 0.918<br/>samples = 18<br/>value = [12, 6, 0, 0, 0, 0, 0, 0, 0, 0]<br/>class = Nothing in hand>, fillcolor="#f2c09c"] ;
2130 -> 2142 ;
2143 [label="(...)", fillcolor="#C0C0C0"] ;
2142 -> 2143 ;
2144 [label="(...)", fillcolor="#C0C0C0"] ;
2142 -> 2144 ;
2159 [label=<C3 &le; 2.5<br/>entropy = 1.112<br/>samples = 378<br/>value = [245, 120, 12, 0, 0, 1, 0, 0, 0, 0]<br/>class = Nothing in hand>, fillcolor="#f2c29f"] ;
2129 -> 2159 ;
2160 [label=<C1 &le; 2.5<br/>entropy = 1.113<br/>samples = 240<br/>value = [147, 87, 5, 0, 0, 1, 0, 0, 0, 0]<br/>class = Nothing in hand>, fillcolor="#f5ceb1"] ;
2159 -> 2160 ;
2161 [label="(...)", fillcolor="#C0C0C0"] ;
2160 -> 2161 ;
2248 [label="(...)", fillcolor="#C0C0C0"] ;
2160 -> 2248 ;
2279 [label=<C1 &le; 2.5<br/>entropy = 1.062<br/>samples = 138<br/>value = [98, 33, 7, 0, 0, 0, 0, 0, 0, 0]<br/>class = Nothing in hand>, fillcolor="#efb184"] ;
2159 -> 2279 ;
2280 [label="(...)", fillcolor="#C0C0C0"] ;
2279 -> 2280 ;
2301 [label="(...)", fillcolor="#C0C0C0"] ;
2279 -> 2301 ;
2316 [label=<C5 &le; 5.5<br/>entropy = 1.367<br/>samples = 1668<br/>value = [845, 691, 117, 7, 0, 6, 2, 0, 0, 0]<br/>class = Nothing in hand>, fillcolor="#fbebe0"] ;
2128 -> 2316 ;
2317 [label=<C1 &le; 1.5<br/>entropy = 1.229<br/>samples = 335<br/>value = [203, 113, 17, 0, 0, 2, 0, 0, 0, 0]<br/>class = Nothing in hand>, fillcolor="#f4ccaf"] ;
2316 -> 2317 ;
2318 [label=<C3 &le; 1.5<br/>entropy = 1.023<br/>samples = 105<br/>value = [75, 27, 2, 0, 0, 1, 0, 0, 0, 0]<br/>class = Nothing in hand>, fillcolor="#efb185"] ;
2317 -> 2318 ;
2319 [label="(...)", fillcolor="#C0C0C0"] ;
2318 -> 2319 ;
2328 [label="(...)", fillcolor="#C0C0C0"] ;
2318 -> 2328 ;
2355 [label=<C3 &le; 1.5<br/>entropy = 1.292<br/>samples = 230<br/>value = [128, 86, 15, 0, 0, 1, 0, 0, 0, 0]<br/>class = Nothing in hand>, fillcolor="#f7dac5"] ;
2317 -> 2355 ;
2356 [label="(...)", fillcolor="#C0C0C0"] ;
2355 -> 2356 ;
2387 [label="(...)", fillcolor="#C0C0C0"] ;
2355 -> 2387 ;
2504 [label=<S5 &le; 1.5<br/>entropy = 1.39<br/>samples = 1333<br/>value = [642, 578, 100, 7, 0, 4, 2, 0, 0, 0]<br/>class = Nothing in hand>, fillcolor="#fdf4ee"] ;
2316 -> 2504 ;
2505 [label=<S4 &le; 1.5<br/>entropy = 1.359<br/>samples = 325<br/>value = [183, 113, 26, 1, 0, 2, 0, 0, 0, 0]<br/>class = Nothing in hand>, fillcolor="#f6d5be"] ;
2504 -> 2505 ;
2506 [label="(...)", fillcolor="#C0C0C0"] ;
2505 -> 2506 ;
2567 [label="(...)", fillcolor="#C0C0C0"] ;
2505 -> 2567 ;
2724 [label=<S3 &le; 2.5<br/>entropy = 1.388<br/>samples = 1008<br/>value = [459, 465, 74, 6, 0, 2, 2, 0, 0, 0]<br/>class = One Pair>, fillcolor="#fffffd"] ;
2504 -> 2724 ;
2725 [label="(...)", fillcolor="#C0C0C0"] ;
2724 -> 2725 ;
3110 [label="(...)", fillcolor="#C0C0C0"] ;
2724 -> 3110 ;
3447 [label=<C4 &le; 3.5<br/>entropy = 1.33<br/>samples = 18699<br/>value = [9997, 7595, 742, 275, 37, 39, 13, 1, 0, 0]<br/>class = Nothing in hand>, fillcolor="#f9e4d4"] ;
1 -> 3447 ;
3448 [label=<C5 &le; 3.5<br/>entropy = 1.477<br/>samples = 4079<br/>value = [1771, 1929, 238, 111, 15, 9, 6, 0, 0, 0]<br/>class = One Pair>, fillcolor="#fdfdf1"] ;
3447 -> 3448 ;
3449 [label=<C2 &le; 3.5<br/>entropy = 1.496<br/>samples = 841<br/>value = [175, 539, 60, 59, 5, 0, 3, 0, 0, 0]<br/>class = One Pair>, fillcolor="#eff193"] ;
3448 -> 3449 ;
3450 [label=<C1 &le; 11.5<br/>entropy = 1.27<br/>samples = 142<br/>value = [0, 93, 28, 21, 0, 0, 0, 0, 0, 0]<br/>class = One Pair>, fillcolor="#eef08e"] ;
3449 -> 3450 ;
3451 [label=<C2 &le; 2.5<br/>entropy = 1.353<br/>samples = 113<br/>value = [0, 69, 23, 21, 0, 0, 0, 0, 0, 0]<br/>class = One Pair>, fillcolor="#f0f29a"] ;
3450 -> 3451 ;
3452 [label=<S1 &le; 1.5<br/>entropy = 1.435<br/>samples = 76<br/>value = [0, 42, 15, 19, 0, 0, 0, 0, 0, 0]<br/>class = One Pair>, fillcolor="#f3f5af"] ;
3451 -> 3452 ;
3453 [label=<C1 &le; 8.5<br/>entropy = 1.248<br/>samples = 16<br/>value = [0, 9, 6, 1, 0, 0, 0, 0, 0, 0]<br/>class = One Pair>, fillcolor="#f6f7c4"] ;
3452 -> 3453 ;
3454 [label=<S2 &le; 2.5<br/>entropy = 0.991<br/>samples = 9<br/>value = [0, 4, 5, 0, 0, 0, 0, 0, 0, 0]<br/>class = Two Pairs>, fillcolor="#e5fad7"] ;
3453 -> 3454 ;
3455 [label="(...)", fillcolor="#C0C0C0"] ;
3454 -> 3455 ;
3456 [label="(...)", fillcolor="#C0C0C0"] ;
3454 -> 3456 ;
3461 [label=<C3 &le; 2.5<br/>entropy = 1.149<br/>samples = 7<br/>value = [0, 5, 1, 1, 0, 0, 0, 0, 0, 0]<br/>class = One Pair>, fillcolor="#ecee7b"] ;
3453 -> 3461 ;
3462 [label="(...)", fillcolor="#C0C0C0"] ;
3461 -> 3462 ;
3467 [label="(...)", fillcolor="#C0C0C0"] ;
3461 -> 3467 ;
3470 [label=<C3 &le; 1.5<br/>entropy = 1.406<br/>samples = 60<br/>value = [0, 33, 9, 18, 0, 0, 0, 0, 0, 0]<br/>class = One Pair>, fillcolor="#f5f6b8"] ;
3452 -> 3470 ;
3471 [label=<C5 &le; 2.5<br/>entropy = 1.539<br/>samples = 20<br/>value = [0, 6, 5, 9, 0, 0, 0, 0, 0, 0]<br/>class = Three of a Kind>, fillcolor="#d5f9dc"] ;
3470 -> 3471 ;
3472 [label="(...)", fillcolor="#C0C0C0"] ;
3471 -> 3472 ;
3483 [label="(...)", fillcolor="#C0C0C0"] ;
3471 -> 3483 ;
3486 [label=<S1 &le; 2.5<br/>entropy = 1.199<br/>samples = 40<br/>value = [0, 27, 4, 9, 0, 0, 0, 0, 0, 0]<br/>class = One Pair>, fillcolor="#eef08c"] ;
3470 -> 3486 ;
3487 [label="(...)", fillcolor="#C0C0C0"] ;
3486 -> 3487 ;
3494 [label="(...)", fillcolor="#C0C0C0"] ;
3486 -> 3494 ;
3513 [label=<C3 &le; 2.5<br/>entropy = 1.037<br/>samples = 37<br/>value = [0, 27, 8, 2, 0, 0, 0, 0, 0, 0]<br/>class = One Pair>, fillcolor="#ecee7d"] ;
3451 -> 3513 ;
3514 [label=<S1 &le; 1.5<br/>entropy = 0.868<br/>samples = 32<br/>value = [0, 26, 4, 2, 0, 0, 0, 0, 0, 0]<br/>class = One Pair>, fillcolor="#e8eb63"] ;
3513 -> 3514 ;
3515 [label=<S2 &le; 3.5<br/>entropy = 1.459<br/>samples = 6<br/>value = [0, 3, 1, 2, 0, 0, 0, 0, 0, 0]<br/>class = One Pair>, fillcolor="#f8f8ce"] ;
3514 -> 3515 ;
3516 [label="(...)", fillcolor="#C0C0C0"] ;
3515 -> 3516 ;
3519 [label="(...)", fillcolor="#C0C0C0"] ;
3515 -> 3519 ;
3522 [label=<S2 &le; 1.5<br/>entropy = 0.516<br/>samples = 26<br/>value = [0, 23, 3, 0, 0, 0, 0, 0, 0, 0]<br/>class = One Pair>, fillcolor="#e6e853"] ;
3514 -> 3522 ;
3523 [label="(...)", fillcolor="#C0C0C0"] ;
3522 -> 3523 ;
3530 [label="(...)", fillcolor="#C0C0C0"] ;
3522 -> 3530 ;
3531 [label=<S4 &le; 1.5<br/>entropy = 0.722<br/>samples = 5<br/>value = [0, 1, 4, 0, 0, 0, 0, 0, 0, 0]<br/>class = Two Pairs>, fillcolor="#9cec6a"] ;
3513 -> 3531 ;
3532 [label=<entropy = 0.0<br/>samples = 1<br/>value = [0, 1, 0, 0, 0, 0, 0, 0, 0, 0]<br/>class = One Pair>, fillcolor="#e2e539"] ;
3531 -> 3532 ;
3533 [label=<entropy = 0.0<br/>samples = 4<br/>value = [0, 0, 4, 0, 0, 0, 0, 0, 0, 0]<br/>class = Two Pairs>, fillcolor="#7be539"] ;
3531 -> 3533 ;
3534 [label=<C2 &le; 2.5<br/>entropy = 0.663<br/>samples = 29<br/>value = [0, 24, 5, 0, 0, 0, 0, 0, 0, 0]<br/>class = One Pair>, fillcolor="#e8ea62"] ;
3450 -> 3534 ;
3535 [label=<S2 &le; 1.5<br/>entropy = 0.323<br/>samples = 17<br/>value = [0, 16, 1, 0, 0, 0, 0, 0, 0, 0]<br/>class = One Pair>, fillcolor="#e4e745"] ;
3534 -> 3535 ;
3536 [label=<S1 &le; 2.5<br/>entropy = 0.811<br/>samples = 4<br/>value = [0, 3, 1, 0, 0, 0, 0, 0, 0, 0]<br/>class = One Pair>, fillcolor="#ecee7b"] ;
3535 -> 3536 ;
3537 [label=<entropy = 0.0<br/>samples = 1<br/>value = [0, 0, 1, 0, 0, 0, 0, 0, 0, 0]<br/>class = Two Pairs>, fillcolor="#7be539"] ;
3536 -> 3537 ;
3538 [label=<entropy = 0.0<br/>samples = 3<br/>value = [0, 3, 0, 0, 0, 0, 0, 0, 0, 0]<br/>class = One Pair>, fillcolor="#e2e539"] ;
3536 -> 3538 ;
3539 [label=<entropy = 0.0<br/>samples = 13<br/>value = [0, 13, 0, 0, 0, 0, 0, 0, 0, 0]<br/>class = One Pair>, fillcolor="#e2e539"] ;
3535 -> 3539 ;
3540 [label=<C3 &le; 1.5<br/>entropy = 0.918<br/>samples = 12<br/>value = [0, 8, 4, 0, 0, 0, 0, 0, 0, 0]<br/>class = One Pair>, fillcolor="#f0f29c"] ;
3534 -> 3540 ;
3541 [label=<entropy = 0.0<br/>samples = 4<br/>value = [0, 4, 0, 0, 0, 0, 0, 0, 0, 0]<br/>class = One Pair>, fillcolor="#e2e539"] ;
3540 -> 3541 ;
3542 [label=<C5 &le; 1.5<br/>entropy = 1.0<br/>samples = 8<br/>value = [0, 4, 4, 0, 0, 0, 0, 0, 0, 0]<br/>class = One Pair>, fillcolor="#ffffff"] ;
3540 -> 3542 ;
3543 [label=<entropy = 0.0<br/>samples = 4<br/>value = [0, 4, 0, 0, 0, 0, 0, 0, 0, 0]<br/>class = One Pair>, fillcolor="#e2e539"] ;
3542 -> 3543 ;
3544 [label=<entropy = 0.0<br/>samples = 4<br/>value = [0, 0, 4, 0, 0, 0, 0, 0, 0, 0]<br/>class = Two Pairs>, fillcolor="#7be539"] ;
3542 -> 3544 ;
3545 [label=<C2 &le; 7.5<br/>entropy = 1.431<br/>samples = 699<br/>value = [175, 446, 32, 38, 5, 0, 3, 0, 0, 0]<br/>class = One Pair>, fillcolor="#f0f299"] ;
3449 -> 3545 ;
3546 [label=<C1 &le; 7.5<br/>entropy = 1.585<br/>samples = 274<br/>value = [78, 158, 19, 13, 5, 0, 1, 0, 0, 0]<br/>class = One Pair>, fillcolor="#f3f4ae"] ;
3545 -> 3546 ;
3547 [label=<S2 &le; 1.5<br/>entropy = 1.99<br/>samples = 108<br/>value = [28, 48, 19, 7, 5, 0, 1, 0, 0, 0]<br/>class = One Pair>, fillcolor="#f8f8ce"] ;
3546 -> 3547 ;
3548 [label=<C1 &le; 4.5<br/>entropy = 1.664<br/>samples = 24<br/>value = [2, 15, 3, 0, 3, 0, 1, 0, 0, 0]<br/>class = One Pair>, fillcolor="#eef08e"] ;
3547 -> 3548 ;
3549 [label=<C2 &le; 4.5<br/>entropy = 2.128<br/>samples = 7<br/>value = [1, 1, 1, 0, 3, 0, 1, 0, 0, 0]<br/>class = Straight>, fillcolor="#bdf6ec"] ;
3548 -> 3549 ;
3550 [label="(...)", fillcolor="#C0C0C0"] ;
3549 -> 3550 ;
3553 [label="(...)", fillcolor="#C0C0C0"] ;
3549 -> 3553 ;
3558 [label=<C1 &le; 5.5<br/>entropy = 0.834<br/>samples = 17<br/>value = [1, 14, 2, 0, 0, 0, 0, 0, 0, 0]<br/>class = One Pair>, fillcolor="#e8ea61"] ;
3548 -> 3558 ;
3559 [label="(...)", fillcolor="#C0C0C0"] ;
3558 -> 3559 ;
3560 [label="(...)", fillcolor="#C0C0C0"] ;
3558 -> 3560 ;
3569 [label=<S3 &le; 1.5<br/>entropy = 1.936<br/>samples = 84<br/>value = [26, 33, 16, 7, 2, 0, 0, 0, 0, 0]<br/>class = One Pair>, fillcolor="#fcfce7"] ;
3547 -> 3569 ;
3570 [label=<C5 &le; 2.5<br/>entropy = 1.579<br/>samples = 20<br/>value = [3, 13, 1, 2, 1, 0, 0, 0, 0, 0]<br/>class = One Pair>, fillcolor="#eef08b"] ;
3569 -> 3570 ;
3571 [label="(...)", fillcolor="#C0C0C0"] ;
3570 -> 3571 ;
3580 [label="(...)", fillcolor="#C0C0C0"] ;
3570 -> 3580 ;
3587 [label=<S3 &le; 2.5<br/>entropy = 1.927<br/>samples = 64<br/>value = [23, 20, 15, 5, 1, 0, 0, 0, 0, 0]<br/>class = Nothing in hand>, fillcolor="#fdf6f2"] ;
3569 -> 3587 ;
3588 [label="(...)", fillcolor="#C0C0C0"] ;
3587 -> 3588 ;
3609 [label="(...)", fillcolor="#C0C0C0"] ;
3587 -> 3609 ;
3646 [label=<S5 &le; 1.5<br/>entropy = 1.088<br/>samples = 166<br/>value = [50, 110, 0, 6, 0, 0, 0, 0, 0, 0]<br/>class = One Pair>, fillcolor="#f0f299"] ;
3546 -> 3646 ;
3647 [label=<S3 &le; 1.5<br/>entropy = 0.976<br/>samples = 44<br/>value = [18, 26, 0, 0, 0, 0, 0, 0, 0, 0]<br/>class = One Pair>, fillcolor="#f6f7c2"] ;
3646 -> 3647 ;
3648 [label=<entropy = 0.0<br/>samples = 4<br/>value = [0, 4, 0, 0, 0, 0, 0, 0, 0, 0]<br/>class = One Pair>, fillcolor="#e2e539"] ;
3647 -> 3648 ;
3649 [label=<S3 &le; 2.5<br/>entropy = 0.993<br/>samples = 40<br/>value = [18, 22, 0, 0, 0, 0, 0, 0, 0, 0]<br/>class = One Pair>, fillcolor="#fafadb"] ;
3647 -> 3649 ;
3650 [label="(...)", fillcolor="#C0C0C0"] ;
3649 -> 3650 ;
3659 [label="(...)", fillcolor="#C0C0C0"] ;
3649 -> 3659 ;
3678 [label=<S2 &le; 2.5<br/>entropy = 1.091<br/>samples = 122<br/>value = [32, 84, 0, 6, 0, 0, 0, 0, 0, 0]<br/>class = One Pair>, fillcolor="#eef08d"] ;
3646 -> 3678 ;
3679 [label=<C5 &le; 1.5<br/>entropy = 1.097<br/>samples = 58<br/>value = [11, 42, 0, 5, 0, 0, 0, 0, 0, 0]<br/>class = One Pair>, fillcolor="#ecee7c"] ;
3678 -> 3679 ;
3680 [label="(...)", fillcolor="#C0C0C0"] ;
3679 -> 3680 ;
3689 [label="(...)", fillcolor="#C0C0C0"] ;
3679 -> 3689 ;
3718 [label=<S1 &le; 1.5<br/>entropy = 1.02<br/>samples = 64<br/>value = [21, 42, 0, 1, 0, 0, 0, 0, 0, 0]<br/>class = One Pair>, fillcolor="#f1f29e"] ;
3678 -> 3718 ;
3719 [label="(...)", fillcolor="#C0C0C0"] ;
3718 -> 3719 ;
3726 [label="(...)", fillcolor="#C0C0C0"] ;
3718 -> 3726 ;
3761 [label=<C1 &le; 7.5<br/>entropy = 1.298<br/>samples = 425<br/>value = [97, 288, 13, 25, 0, 0, 2, 0, 0, 0]<br/>class = One Pair>, fillcolor="#eef08c"] ;
3545 -> 3761 ;
3762 [label=<S4 &le; 1.5<br/>entropy = 1.099<br/>samples = 178<br/>value = [40, 126, 0, 12, 0, 0, 0, 0, 0, 0]<br/>class = One Pair>, fillcolor="#edef84"] ;
3761 -> 3762 ;
3763 [label=<S5 &le; 3.5<br/>entropy = 1.285<br/>samples = 40<br/>value = [15, 22, 0, 3, 0, 0, 0, 0, 0, 0]<br/>class = One Pair>, fillcolor="#f7f8c8"] ;
3762 -> 3763 ;
3764 [label=<C2 &le; 11.5<br/>entropy = 1.117<br/>samples = 27<br/>value = [6, 19, 0, 2, 0, 0, 0, 0, 0, 0]<br/>class = One Pair>, fillcolor="#edef84"] ;
3763 -> 3764 ;
3765 [label="(...)", fillcolor="#C0C0C0"] ;
3764 -> 3765 ;
3778 [label="(...)", fillcolor="#C0C0C0"] ;
3764 -> 3778 ;
3779 [label=<S1 &le; 1.5<br/>entropy = 1.14<br/>samples = 13<br/>value = [9, 3, 0, 1, 0, 0, 0, 0, 0, 0]<br/>class = Nothing in hand>, fillcolor="#efb388"] ;
3763 -> 3779 ;
3780 [label="(...)", fillcolor="#C0C0C0"] ;
3779 -> 3780 ;
3785 [label="(...)", fillcolor="#C0C0C0"] ;
3779 -> 3785 ;
3788 [label=<C3 &le; 1.5<br/>entropy = 1.011<br/>samples = 138<br/>value = [25, 104, 0, 9, 0, 0, 0, 0, 0, 0]<br/>class = One Pair>, fillcolor="#ebed75"] ;
3762 -> 3788 ;
3789 [label=<S5 &le; 1.5<br/>entropy = 0.593<br/>samples = 44<br/>value = [4, 39, 0, 1, 0, 0, 0, 0, 0, 0]<br/>class = One Pair>, fillcolor="#e6e852"] ;
3788 -> 3789 ;
3790 [label="(...)", fillcolor="#C0C0C0"] ;
3789 -> 3790 ;
3795 [label="(...)", fillcolor="#C0C0C0"] ;
3789 -> 3795 ;
3806 [label=<C4 &le; 1.5<br/>entropy = 1.154<br/>samples = 94<br/>value = [21, 65, 0, 8, 0, 0, 0, 0, 0, 0]<br/>class = One Pair>, fillcolor="#eeef88"] ;
3788 -> 3806 ;
3807 [label="(...)", fillcolor="#C0C0C0"] ;
3806 -> 3807 ;
3824 [label="(...)", fillcolor="#C0C0C0"] ;
3806 -> 3824 ;
3849 [label=<S2 &le; 1.5<br/>entropy = 1.391<br/>samples = 247<br/>value = [57, 162, 13, 13, 0, 0, 2, 0, 0, 0]<br/>class = One Pair>, fillcolor="#eff192"] ;
3761 -> 3849 ;
3850 [label=<S5 &le; 1.5<br/>entropy = 1.01<br/>samples = 74<br/>value = [12, 58, 2, 1, 0, 0, 1, 0, 0, 0]<br/>class = One Pair>, fillcolor="#e9ec6c"] ;
3849 -> 3850 ;
3851 [label=<entropy = 0.0<br/>samples = 18<br/>value = [0, 18, 0, 0, 0, 0, 0, 0, 0, 0]<br/>class = One Pair>, fillcolor="#e2e539"] ;
3850 -> 3851 ;
3852 [label=<S3 &le; 1.5<br/>entropy = 1.202<br/>samples = 56<br/>value = [12, 40, 2, 1, 0, 0, 1, 0, 0, 0]<br/>class = One Pair>, fillcolor="#edee81"] ;
3850 -> 3852 ;
3853 [label="(...)", fillcolor="#C0C0C0"] ;
3852 -> 3853 ;
3872 [label="(...)", fillcolor="#C0C0C0"] ;
3852 -> 3872 ;
3897 [label=<C2 &le; 10.5<br/>entropy = 1.509<br/>samples = 173<br/>value = [45, 104, 11, 12, 0, 0, 1, 0, 0, 0]<br/>class = One Pair>, fillcolor="#f2f3a4"] ;
3849 -> 3897 ;
3898 [label=<C1 &le; 10.5<br/>entropy = 1.601<br/>samples = 85<br/>value = [19, 49, 10, 7, 0, 0, 0, 0, 0, 0]<br/>class = One Pair>, fillcolor="#f2f3a5"] ;
3897 -> 3898 ;
3899 [label="(...)", fillcolor="#C0C0C0"] ;
3898 -> 3899 ;
3948 [label="(...)", fillcolor="#C0C0C0"] ;
3898 -> 3948 ;
3979 [label=<S5 &le; 3.5<br/>entropy = 1.325<br/>samples = 88<br/>value = [26, 55, 1, 5, 0, 0, 1, 0, 0, 0]<br/>class = One Pair>, fillcolor="#f1f3a2"] ;
3897 -> 3979 ;
3980 [label="(...)", fillcolor="#C0C0C0"] ;
3979 -> 3980 ;
4035 [label="(...)", fillcolor="#C0C0C0"] ;
3979 -> 4035 ;
4052 [label=<C2 &le; 3.5<br/>entropy = 1.411<br/>samples = 3238<br/>value = [1596, 1390, 178, 52, 10, 9, 3, 0, 0, 0]<br/>class = Nothing in hand>, fillcolor="#fcf1e9"] ;
3448 -> 4052 ;
4053 [label=<S2 &le; 2.5<br/>entropy = 1.488<br/>samples = 683<br/>value = [180, 417, 39, 42, 2, 2, 1, 0, 0, 0]<br/>class = One Pair>, fillcolor="#f1f3a2"] ;
4052 -> 4053 ;
4054 [label=<S1 &le; 1.5<br/>entropy = 1.517<br/>samples = 332<br/>value = [102, 190, 20, 17, 2, 0, 1, 0, 0, 0]<br/>class = One Pair>, fillcolor="#f4f5b3"] ;
4053 -> 4054 ;
4055 [label=<C4 &le; 2.5<br/>entropy = 1.58<br/>samples = 82<br/>value = [29, 40, 3, 10, 0, 0, 0, 0, 0, 0]<br/>class = One Pair>, fillcolor="#f9fad6"] ;
4054 -> 4055 ;
4056 [label=<C2 &le; 2.5<br/>entropy = 1.553<br/>samples = 53<br/>value = [16, 29, 3, 5, 0, 0, 0, 0, 0, 0]<br/>class = One Pair>, fillcolor="#f5f6b9"] ;
4055 -> 4056 ;
4057 [label=<C3 &le; 2.5<br/>entropy = 1.485<br/>samples = 33<br/>value = [5, 21, 2, 5, 0, 0, 0, 0, 0, 0]<br/>class = One Pair>, fillcolor="#eef08e"] ;
4056 -> 4057 ;
4058 [label="(...)", fillcolor="#C0C0C0"] ;
4057 -> 4058 ;
4075 [label="(...)", fillcolor="#C0C0C0"] ;
4057 -> 4075 ;
4082 [label=<C3 &le; 2.5<br/>entropy = 1.219<br/>samples = 20<br/>value = [11, 8, 1, 0, 0, 0, 0, 0, 0, 0]<br/>class = Nothing in hand>, fillcolor="#f8e0ce"] ;
4056 -> 4082 ;
4083 [label="(...)", fillcolor="#C0C0C0"] ;
4082 -> 4083 ;
4100 [label="(...)", fillcolor="#C0C0C0"] ;
4082 -> 4100 ;
4103 [label=<C2 &le; 2.5<br/>entropy = 1.487<br/>samples = 29<br/>value = [13, 11, 0, 5, 0, 0, 0, 0, 0, 0]<br/>class = Nothing in hand>, fillcolor="#fcf1e9"] ;
4055 -> 4103 ;
4104 [label=<C3 &le; 1.5<br/>entropy = 0.934<br/>samples = 20<br/>value = [13, 7, 0, 0, 0, 0, 0, 0, 0, 0]<br/>class = Nothing in hand>, fillcolor="#f3c5a4"] ;
4103 -> 4104 ;
4105 [label="(...)", fillcolor="#C0C0C0"] ;
4104 -> 4105 ;
4106 [label="(...)", fillcolor="#C0C0C0"] ;
4104 -> 4106 ;
4111 [label=<C3 &le; 2.5<br/>entropy = 0.991<br/>samples = 9<br/>value = [0, 4, 0, 5, 0, 0, 0, 0, 0, 0]<br/>class = Three of a Kind>, fillcolor="#d7fadf"] ;
4103 -> 4111 ;
4112 [label="(...)", fillcolor="#C0C0C0"] ;
4111 -> 4112 ;
4113 [label="(...)", fillcolor="#C0C0C0"] ;
4111 -> 4113 ;
4114 [label=<C1 &le; 5.5<br/>entropy = 1.457<br/>samples = 250<br/>value = [73, 150, 17, 7, 2, 0, 1, 0, 0, 0]<br/>class = One Pair>, fillcolor="#f2f4a9"] ;
4054 -> 4114 ;
4115 [label=<C5 &le; 5.5<br/>entropy = 1.259<br/>samples = 55<br/>value = [15, 36, 2, 0, 2, 0, 0, 0, 0, 0]<br/>class = One Pair>, fillcolor="#f0f197"] ;
4114 -> 4115 ;
4116 [label=<S1 &le; 2.5<br/>entropy = 1.371<br/>samples = 10<br/>value = [0, 6, 2, 0, 2, 0, 0, 0, 0, 0]<br/>class = One Pair>, fillcolor="#f0f29c"] ;
4115 -> 4116 ;
4117 [label="(...)", fillcolor="#C0C0C0"] ;
4116 -> 4117 ;
4120 [label="(...)", fillcolor="#C0C0C0"] ;
4116 -> 4120 ;
4123 [label=<C4 &le; 1.5<br/>entropy = 0.918<br/>samples = 45<br/>value = [15, 30, 0, 0, 0, 0, 0, 0, 0, 0]<br/>class = One Pair>, fillcolor="#f0f29c"] ;
4115 -> 4123 ;
4124 [label="(...)", fillcolor="#C0C0C0"] ;
4123 -> 4124 ;
4129 [label="(...)", fillcolor="#C0C0C0"] ;
4123 -> 4129 ;
4150 [label=<C5 &le; 5.5<br/>entropy = 1.469<br/>samples = 195<br/>value = [58, 114, 15, 7, 0, 0, 1, 0, 0, 0]<br/>class = One Pair>, fillcolor="#f3f4ae"] ;
4114 -> 4150 ;
4151 [label=<C1 &le; 10.5<br/>entropy = 0.98<br/>samples = 36<br/>value = [15, 21, 0, 0, 0, 0, 0, 0, 0, 0]<br/>class = One Pair>, fillcolor="#f7f8c6"] ;
4150 -> 4151 ;
4152 [label="(...)", fillcolor="#C0C0C0"] ;
4151 -> 4152 ;
4167 [label="(...)", fillcolor="#C0C0C0"] ;
4151 -> 4167 ;
4178 [label=<C5 &le; 8.5<br/>entropy = 1.528<br/>samples = 159<br/>value = [43, 93, 15, 7, 0, 0, 1, 0, 0, 0]<br/>class = One Pair>, fillcolor="#f3f4aa"] ;
4150 -> 4178 ;
4179 [label="(...)", fillcolor="#C0C0C0"] ;
4178 -> 4179 ;
4224 [label="(...)", fillcolor="#C0C0C0"] ;
4178 -> 4224 ;
4311 [label=<S5 &le; 2.5<br/>entropy = 1.431<br/>samples = 351<br/>value = [78, 227, 19, 25, 0, 2, 0, 0, 0, 0]<br/>class = One Pair>, fillcolor="#eff193"] ;
4053 -> 4311 ;
4312 [label=<S1 &le; 2.5<br/>entropy = 1.537<br/>samples = 176<br/>value = [43, 104, 13, 16, 0, 0, 0, 0, 0, 0]<br/>class = One Pair>, fillcolor="#f2f3a4"] ;
4311 -> 4312 ;
4313 [label=<C1 &le; 4.5<br/>entropy = 1.432<br/>samples = 89<br/>value = [22, 54, 2, 11, 0, 0, 0, 0, 0, 0]<br/>class = One Pair>, fillcolor="#f1f3a0"] ;
4312 -> 4313 ;
4314 [label=<C5 &le; 5.0<br/>entropy = 1.658<br/>samples = 9<br/>value = [1, 5, 2, 1, 0, 0, 0, 0, 0, 0]<br/>class = One Pair>, fillcolor="#f3f4aa"] ;
4313 -> 4314 ;
4315 [label="(...)", fillcolor="#C0C0C0"] ;
4314 -> 4315 ;
4316 [label="(...)", fillcolor="#C0C0C0"] ;
4314 -> 4316 ;
4323 [label=<C1 &le; 12.5<br/>entropy = 1.315<br/>samples = 80<br/>value = [21, 49, 0, 10, 0, 0, 0, 0, 0, 0]<br/>class = One Pair>, fillcolor="#f1f3a1"] ;
4313 -> 4323 ;
4324 [label="(...)", fillcolor="#C0C0C0"] ;
4323 -> 4324 ;
4383 [label="(...)", fillcolor="#C0C0C0"] ;
4323 -> 4383 ;
4388 [label=<C5 &le; 7.5<br/>entropy = 1.568<br/>samples = 87<br/>value = [21, 50, 11, 5, 0, 0, 0, 0, 0, 0]<br/>class = One Pair>, fillcolor="#f2f4a8"] ;
4312 -> 4388 ;
4389 [label=<C1 &le; 6.5<br/>entropy = 1.66<br/>samples = 37<br/>value = [9, 20, 3, 5, 0, 0, 0, 0, 0, 0]<br/>class = One Pair>, fillcolor="#f4f5b1"] ;
4388 -> 4389 ;
4390 [label="(...)", fillcolor="#C0C0C0"] ;
4389 -> 4390 ;
4399 [label="(...)", fillcolor="#C0C0C0"] ;
4389 -> 4399 ;
4428 [label=<C1 &le; 7.5<br/>entropy = 1.359<br/>samples = 50<br/>value = [12, 30, 8, 0, 0, 0, 0, 0, 0, 0]<br/>class = One Pair>, fillcolor="#f1f3a1"] ;
4388 -> 4428 ;
4429 [label="(...)", fillcolor="#C0C0C0"] ;
4428 -> 4429 ;
4438 [label="(...)", fillcolor="#C0C0C0"] ;
4428 -> 4438 ;
4463 [label=<C3 &le; 1.5<br/>entropy = 1.283<br/>samples = 175<br/>value = [35, 123, 6, 9, 0, 2, 0, 0, 0, 0]<br/>class = One Pair>, fillcolor="#edef83"] ;
4311 -> 4463 ;
4464 [label=<C4 &le; 1.5<br/>entropy = 1.627<br/>samples = 59<br/>value = [18, 32, 4, 4, 0, 1, 0, 0, 0, 0]<br/>class = One Pair>, fillcolor="#f5f6bb"] ;
4463 -> 4464 ;
4465 [label=<C2 &le; 1.5<br/>entropy = 1.299<br/>samples = 16<br/>value = [0, 10, 2, 4, 0, 0, 0, 0, 0, 0]<br/>class = One Pair>, fillcolor="#f0f29c"] ;
4464 -> 4465 ;
4466 [label="(...)", fillcolor="#C0C0C0"] ;
4465 -> 4466 ;
4467 [label="(...)", fillcolor="#C0C0C0"] ;
4465 -> 4467 ;
4474 [label=<C2 &le; 1.5<br/>entropy = 1.353<br/>samples = 43<br/>value = [18, 22, 2, 0, 0, 1, 0, 0, 0, 0]<br/>class = One Pair>, fillcolor="#fafbdf"] ;
4464 -> 4474 ;
4475 [label="(...)", fillcolor="#C0C0C0"] ;
4474 -> 4475 ;
4480 [label="(...)", fillcolor="#C0C0C0"] ;
4474 -> 4480 ;
4509 [label=<C4 &le; 2.5<br/>entropy = 1.036<br/>samples = 116<br/>value = [17, 91, 2, 5, 0, 1, 0, 0, 0, 0]<br/>class = One Pair>, fillcolor="#e9ec6b"] ;
4463 -> 4509 ;
4510 [label=<C1 &le; 11.5<br/>entropy = 0.97<br/>samples = 84<br/>value = [17, 64, 2, 1, 0, 0, 0, 0, 0, 0]<br/>class = One Pair>, fillcolor="#ebed74"] ;
4509 -> 4510 ;
4511 [label="(...)", fillcolor="#C0C0C0"] ;
4510 -> 4511 ;
4544 [label="(...)", fillcolor="#C0C0C0"] ;
4510 -> 4544 ;
4557 [label=<C2 &le; 2.5<br/>entropy = 0.738<br/>samples = 32<br/>value = [0, 27, 0, 4, 0, 1, 0, 0, 0, 0]<br/>class = One Pair>, fillcolor="#e7ea5c"] ;
4509 -> 4557 ;
4558 [label="(...)", fillcolor="#C0C0C0"] ;
4557 -> 4558 ;
4563 [label="(...)", fillcolor="#C0C0C0"] ;
4557 -> 4563 ;
4566 [label=<C2 &le; 5.5<br/>entropy = 1.32<br/>samples = 2555<br/>value = [1416, 973, 139, 10, 8, 7, 2, 0, 0, 0]<br/>class = Nothing in hand>, fillcolor="#f8dcc8"] ;
4052 -> 4566 ;
4567 [label=<C1 &le; 5.5<br/>entropy = 1.392<br/>samples = 484<br/>value = [272, 174, 26, 1, 8, 2, 1, 0, 0, 0]<br/>class = Nothing in hand>, fillcolor="#f7d7c0"] ;
4566 -> 4567 ;
4568 [label=<C5 &le; 6.5<br/>entropy = 1.885<br/>samples = 90<br/>value = [31, 40, 9, 1, 7, 1, 1, 0, 0, 0]<br/>class = One Pair>, fillcolor="#fbfbe1"] ;
4567 -> 4568 ;
4569 [label=<C5 &le; 5.5<br/>entropy = 1.872<br/>samples = 21<br/>value = [0, 9, 3, 1, 7, 0, 1, 0, 0, 0]<br/>class = One Pair>, fillcolor="#fbfbe3"] ;
4568 -> 4569 ;
4570 [label=<C5 &le; 4.5<br/>entropy = 1.685<br/>samples = 10<br/>value = [0, 5, 3, 1, 0, 0, 1, 0, 0, 0]<br/>class = One Pair>, fillcolor="#f7f8c6"] ;
4569 -> 4570 ;
4571 [label="(...)", fillcolor="#C0C0C0"] ;
4570 -> 4571 ;
4574 [label="(...)", fillcolor="#C0C0C0"] ;
4570 -> 4574 ;
4579 [label=<S1 &le; 1.5<br/>entropy = 0.946<br/>samples = 11<br/>value = [0, 4, 0, 0, 7, 0, 0, 0, 0, 0]<br/>class = Straight>, fillcolor="#aaf4e6"] ;
4569 -> 4579 ;
4580 [label="(...)", fillcolor="#C0C0C0"] ;
4579 -> 4580 ;
4581 [label="(...)", fillcolor="#C0C0C0"] ;
4579 -> 4581 ;
4586 [label=<C5 &le; 12.5<br/>entropy = 1.432<br/>samples = 69<br/>value = [31, 31, 6, 0, 0, 1, 0, 0, 0, 0]<br/>class = Nothing in hand>, fillcolor="#ffffff"] ;
4568 -> 4586 ;
4587 [label=<C5 &le; 8.5<br/>entropy = 1.377<br/>samples = 62<br/>value = [31, 26, 4, 0, 0, 1, 0, 0, 0, 0]<br/>class = Nothing in hand>, fillcolor="#fbeee4"] ;
4586 -> 4587 ;
4588 [label="(...)", fillcolor="#C0C0C0"] ;
4587 -> 4588 ;
4599 [label="(...)", fillcolor="#C0C0C0"] ;
4587 -> 4599 ;
4638 [label=<S1 &le; 3.5<br/>entropy = 0.863<br/>samples = 7<br/>value = [0, 5, 2, 0, 0, 0, 0, 0, 0, 0]<br/>class = One Pair>, fillcolor="#eeef88"] ;
4586 -> 4638 ;
4639 [label="(...)", fillcolor="#C0C0C0"] ;
4638 -> 4639 ;
4640 [label="(...)", fillcolor="#C0C0C0"] ;
4638 -> 4640 ;
4643 [label=<C5 &le; 7.5<br/>entropy = 1.202<br/>samples = 394<br/>value = [241, 134, 17, 0, 1, 1, 0, 0, 0, 0]<br/>class = Nothing in hand>, fillcolor="#f4cbae"] ;
4567 -> 4643 ;
4644 [label=<C1 &le; 7.5<br/>entropy = 1.281<br/>samples = 159<br/>value = [81, 69, 8, 0, 1, 0, 0, 0, 0, 0]<br/>class = Nothing in hand>, fillcolor="#fceee5"] ;
4643 -> 4644 ;
4645 [label=<C3 &le; 2.5<br/>entropy = 1.581<br/>samples = 41<br/>value = [15, 19, 6, 0, 1, 0, 0, 0, 0, 0]<br/>class = One Pair>, fillcolor="#fbfbe1"] ;
4644 -> 4645 ;
4646 [label="(...)", fillcolor="#C0C0C0"] ;
4645 -> 4646 ;
4667 [label="(...)", fillcolor="#C0C0C0"] ;
4645 -> 4667 ;
4676 [label=<S2 &le; 2.5<br/>entropy = 1.093<br/>samples = 118<br/>value = [66, 50, 2, 0, 0, 0, 0, 0, 0, 0]<br/>class = Nothing in hand>, fillcolor="#f9e1d0"] ;
4644 -> 4676 ;
4677 [label="(...)", fillcolor="#C0C0C0"] ;
4676 -> 4677 ;
4712 [label="(...)", fillcolor="#C0C0C0"] ;
4676 -> 4712 ;
4757 [label=<S1 &le; 2.5<br/>entropy = 1.104<br/>samples = 235<br/>value = [160, 65, 9, 0, 0, 1, 0, 0, 0, 0]<br/>class = Nothing in hand>, fillcolor="#f0b990"] ;
4643 -> 4757 ;
4758 [label=<S5 &le; 2.5<br/>entropy = 1.207<br/>samples = 120<br/>value = [77, 34, 9, 0, 0, 0, 0, 0, 0, 0]<br/>class = Nothing in hand>, fillcolor="#f2c09c"] ;
4757 -> 4758 ;
4759 [label="(...)", fillcolor="#C0C0C0"] ;
4758 -> 4759 ;
4796 [label="(...)", fillcolor="#C0C0C0"] ;
4758 -> 4796 ;
4849 [label=<C1 &le; 12.5<br/>entropy = 0.909<br/>samples = 115<br/>value = [83, 31, 0, 0, 0, 1, 0, 0, 0, 0]<br/>class = Nothing in hand>, fillcolor="#efb184"] ;
4757 -> 4849 ;
4850 [label="(...)", fillcolor="#C0C0C0"] ;
4849 -> 4850 ;
4899 [label="(...)", fillcolor="#C0C0C0"] ;
4849 -> 4899 ;
4908 [label=<S3 &le; 3.5<br/>entropy = 1.292<br/>samples = 2071<br/>value = [1144, 799, 113, 9, 0, 5, 1, 0, 0, 0]<br/>class = Nothing in hand>, fillcolor="#f8ddc9"] ;
4566 -> 4908 ;
4909 [label=<C2 &le; 12.5<br/>entropy = 1.265<br/>samples = 1551<br/>value = [865, 601, 75, 5, 0, 5, 0, 0, 0, 0]<br/>class = Nothing in hand>, fillcolor="#f8dcc8"] ;
4908 -> 4909 ;
4910 [label=<C5 &le; 12.5<br/>entropy = 1.271<br/>samples = 1367<br/>value = [754, 534, 72, 4, 0, 3, 0, 0, 0, 0]<br/>class = Nothing in hand>, fillcolor="#f8decb"] ;
4909 -> 4910 ;
4911 [label=<C1 &le; 12.5<br/>entropy = 1.288<br/>samples = 1210<br/>value = [649, 488, 66, 4, 0, 3, 0, 0, 0, 0]<br/>class = Nothing in hand>, fillcolor="#f9e3d3"] ;
4910 -> 4911 ;
4912 [label="(...)", fillcolor="#C0C0C0"] ;
4911 -> 4912 ;
5645 [label="(...)", fillcolor="#C0C0C0"] ;
4911 -> 5645 ;
5712 [label=<C1 &le; 12.5<br/>entropy = 1.087<br/>samples = 157<br/>value = [105, 46, 6, 0, 0, 0, 0, 0, 0, 0]<br/>class = Nothing in hand>, fillcolor="#f1bc96"] ;
4910 -> 5712 ;
5713 [label="(...)", fillcolor="#C0C0C0"] ;
5712 -> 5713 ;
5798 [label="(...)", fillcolor="#C0C0C0"] ;
5712 -> 5798 ;
5807 [label=<C5 &le; 12.5<br/>entropy = 1.179<br/>samples = 184<br/>value = [111, 67, 3, 1, 0, 2, 0, 0, 0, 0]<br/>class = Nothing in hand>, fillcolor="#f5d0b5"] ;
4909 -> 5807 ;
5808 [label=<C1 &le; 12.5<br/>entropy = 1.094<br/>samples = 175<br/>value = [111, 60, 2, 0, 0, 2, 0, 0, 0, 0]<br/>class = Nothing in hand>, fillcolor="#f3c7a7"] ;
5807 -> 5808 ;
5809 [label="(...)", fillcolor="#C0C0C0"] ;
5808 -> 5809 ;
5914 [label="(...)", fillcolor="#C0C0C0"] ;
5808 -> 5914 ;
5915 [label=<C1 &le; 12.5<br/>entropy = 0.986<br/>samples = 9<br/>value = [0, 7, 1, 1, 0, 0, 0, 0, 0, 0]<br/>class = One Pair>, fillcolor="#e9ec6a"] ;
5807 -> 5915 ;
5916 [label="(...)", fillcolor="#C0C0C0"] ;
5915 -> 5916 ;
5921 [label="(...)", fillcolor="#C0C0C0"] ;
5915 -> 5921 ;
5922 [label=<S4 &le; 3.5<br/>entropy = 1.36<br/>samples = 520<br/>value = [279, 198, 38, 4, 0, 0, 1, 0, 0, 0]<br/>class = Nothing in hand>, fillcolor="#f8dfcd"] ;
4908 -> 5922 ;
5923 [label=<C5 &le; 7.5<br/>entropy = 1.395<br/>samples = 429<br/>value = [213, 175, 38, 2, 0, 0, 1, 0, 0, 0]<br/>class = Nothing in hand>, fillcolor="#fbece1"] ;
5922 -> 5923 ;
5924 [label=<C1 &le; 6.5<br/>entropy = 1.32<br/>samples = 161<br/>value = [72, 78, 10, 0, 0, 0, 1, 0, 0, 0]<br/>class = One Pair>, fillcolor="#fdfdf2"] ;
5923 -> 5924 ;
5925 [label="(...)", fillcolor="#C0C0C0"] ;
5924 -> 5925 ;
5966 [label="(...)", fillcolor="#C0C0C0"] ;
5924 -> 5966 ;
6047 [label=<C1 &le; 5.5<br/>entropy = 1.411<br/>samples = 268<br/>value = [141, 97, 28, 2, 0, 0, 0, 0, 0, 0]<br/>class = Nothing in hand>, fillcolor="#f8dfcc"] ;
5923 -> 6047 ;
6048 [label="(...)", fillcolor="#C0C0C0"] ;
6047 -> 6048 ;
6081 [label="(...)", fillcolor="#C0C0C0"] ;
6047 -> 6081 ;
6228 [label=<C2 &le; 10.5<br/>entropy = 0.959<br/>samples = 91<br/>value = [66, 23, 0, 2, 0, 0, 0, 0, 0, 0]<br/>class = Nothing in hand>, fillcolor="#efaf82"] ;
5922 -> 6228 ;
6229 [label=<C2 &le; 7.5<br/>entropy = 1.095<br/>samples = 64<br/>value = [41, 21, 0, 2, 0, 0, 0, 0, 0, 0]<br/>class = Nothing in hand>, fillcolor="#f3c4a3"] ;
6228 -> 6229 ;
6230 [label="(...)", fillcolor="#C0C0C0"] ;
6229 -> 6230 ;
6245 [label="(...)", fillcolor="#C0C0C0"] ;
6229 -> 6245 ;
6272 [label=<C1 &le; 8.5<br/>entropy = 0.381<br/>samples = 27<br/>value = [25, 2, 0, 0, 0, 0, 0, 0, 0, 0]<br/>class = Nothing in hand>, fillcolor="#e78b49"] ;
6228 -> 6272 ;
6273 [label="(...)", fillcolor="#C0C0C0"] ;
6272 -> 6273 ;
6274 [label="(...)", fillcolor="#C0C0C0"] ;
6272 -> 6274 ;
6279 [label=<C5 &le; 3.5<br/>entropy = 1.276<br/>samples = 14620<br/>value = [8226, 5666, 504, 164, 22, 30, 7, 1, 0, 0]<br/>class = Nothing in hand>, fillcolor="#f8dbc6"] ;
3447 -> 6279 ;
6280 [label=<C2 &le; 3.5<br/>entropy = 1.372<br/>samples = 3276<br/>value = [1642, 1393, 195, 32, 3, 5, 6, 0, 0, 0]<br/>class = Nothing in hand>, fillcolor="#fceee5"] ;
6279 -> 6280 ;
6281 [label=<S4 &le; 2.5<br/>entropy = 1.393<br/>samples = 657<br/>value = [162, 425, 40, 24, 1, 0, 5, 0, 0, 0]<br/>class = One Pair>, fillcolor="#f0f196"] ;
6280 -> 6281 ;
6282 [label=<S3 &le; 2.5<br/>entropy = 1.462<br/>samples = 332<br/>value = [90, 204, 19, 14, 0, 0, 5, 0, 0, 0]<br/>class = One Pair>, fillcolor="#f1f3a2"] ;
6281 -> 6282 ;
6283 [label=<C1 &le; 10.5<br/>entropy = 1.437<br/>samples = 173<br/>value = [38, 113, 7, 12, 0, 0, 3, 0, 0, 0]<br/>class = One Pair>, fillcolor="#eff191"] ;
6282 -> 6283 ;
6284 [label=<C2 &le; 1.5<br/>entropy = 1.187<br/>samples = 123<br/>value = [23, 90, 4, 5, 0, 0, 1, 0, 0, 0]<br/>class = One Pair>, fillcolor="#ecee7a"] ;
6283 -> 6284 ;
6285 [label=<C3 &le; 1.5<br/>entropy = 1.407<br/>samples = 39<br/>value = [10, 24, 0, 4, 0, 0, 1, 0, 0, 0]<br/>class = One Pair>, fillcolor="#f1f29f"] ;
6284 -> 6285 ;
6286 [label="(...)", fillcolor="#C0C0C0"] ;
6285 -> 6286 ;
6291 [label="(...)", fillcolor="#C0C0C0"] ;
6285 -> 6291 ;
6308 [label=<C4 &le; 8.5<br/>entropy = 0.975<br/>samples = 84<br/>value = [13, 66, 4, 1, 0, 0, 0, 0, 0, 0]<br/>class = One Pair>, fillcolor="#e9ec6b"] ;
6284 -> 6308 ;
6309 [label="(...)", fillcolor="#C0C0C0"] ;
6308 -> 6309 ;
6328 [label="(...)", fillcolor="#C0C0C0"] ;
6308 -> 6328 ;
6361 [label=<C4 &le; 10.5<br/>entropy = 1.863<br/>samples = 50<br/>value = [15, 23, 3, 7, 0, 0, 2, 0, 0, 0]<br/>class = One Pair>, fillcolor="#f8f9d2"] ;
6283 -> 6361 ;
6362 [label=<C2 &le; 2.5<br/>entropy = 1.476<br/>samples = 31<br/>value = [13, 13, 0, 5, 0, 0, 0, 0, 0, 0]<br/>class = Nothing in hand>, fillcolor="#ffffff"] ;
6361 -> 6362 ;
6363 [label="(...)", fillcolor="#C0C0C0"] ;
6362 -> 6363 ;
6378 [label="(...)", fillcolor="#C0C0C0"] ;
6362 -> 6378 ;
6383 [label=<S2 &le; 3.5<br/>entropy = 1.933<br/>samples = 19<br/>value = [2, 10, 3, 2, 0, 0, 2, 0, 0, 0]<br/>class = One Pair>, fillcolor="#f2f4a8"] ;
6361 -> 6383 ;
6384 [label="(...)", fillcolor="#C0C0C0"] ;
6383 -> 6384 ;
6395 [label="(...)", fillcolor="#C0C0C0"] ;
6383 -> 6395 ;
6402 [label=<C1 &le; 6.5<br/>entropy = 1.428<br/>samples = 159<br/>value = [52, 91, 12, 2, 0, 0, 2, 0, 0, 0]<br/>class = One Pair>, fillcolor="#f4f6b7"] ;
6282 -> 6402 ;
6403 [label=<C1 &le; 4.5<br/>entropy = 1.411<br/>samples = 47<br/>value = [19, 24, 2, 2, 0, 0, 0, 0, 0, 0]<br/>class = One Pair>, fillcolor="#fafadc"] ;
6402 -> 6403 ;
6404 [label=<C4 &le; 10.5<br/>entropy = 0.991<br/>samples = 13<br/>value = [2, 10, 0, 1, 0, 0, 0, 0, 0, 0]<br/>class = One Pair>, fillcolor="#eaec6f"] ;
6403 -> 6404 ;
6405 [label="(...)", fillcolor="#C0C0C0"] ;
6404 -> 6405 ;
6406 [label="(...)", fillcolor="#C0C0C0"] ;
6404 -> 6406 ;
6411 [label=<C2 &le; 1.5<br/>entropy = 1.417<br/>samples = 34<br/>value = [17, 14, 2, 1, 0, 0, 0, 0, 0, 0]<br/>class = Nothing in hand>, fillcolor="#fbece1"] ;
6403 -> 6411 ;
6412 [label="(...)", fillcolor="#C0C0C0"] ;
6411 -> 6412 ;
6429 [label="(...)", fillcolor="#C0C0C0"] ;
6411 -> 6429 ;
6438 [label=<C4 &le; 6.5<br/>entropy = 1.378<br/>samples = 112<br/>value = [33, 67, 10, 0, 0, 0, 2, 0, 0, 0]<br/>class = One Pair>, fillcolor="#f3f4aa"] ;
6402 -> 6438 ;
6439 [label=<S5 &le; 1.5<br/>entropy = 0.918<br/>samples = 30<br/>value = [10, 20, 0, 0, 0, 0, 0, 0, 0, 0]<br/>class = One Pair>, fillcolor="#f0f29c"] ;
6438 -> 6439 ;
6440 [label="(...)", fillcolor="#C0C0C0"] ;
6439 -> 6440 ;
6441 [label="(...)", fillcolor="#C0C0C0"] ;
6439 -> 6441 ;
6456 [label=<S5 &le; 3.5<br/>entropy = 1.476<br/>samples = 82<br/>value = [23, 47, 10, 0, 0, 0, 2, 0, 0, 0]<br/>class = One Pair>, fillcolor="#f3f4ae"] ;
6438 -> 6456 ;
6457 [label="(...)", fillcolor="#C0C0C0"] ;
6456 -> 6457 ;
6506 [label="(...)", fillcolor="#C0C0C0"] ;
6456 -> 6506 ;
6521 [label=<C5 &le; 1.5<br/>entropy = 1.296<br/>samples = 325<br/>value = [72, 221, 21, 10, 1, 0, 0, 0, 0, 0]<br/>class = One Pair>, fillcolor="#eef08a"] ;
6281 -> 6521 ;
6522 [label=<C2 &le; 1.5<br/>entropy = 1.443<br/>samples = 113<br/>value = [21, 75, 9, 7, 1, 0, 0, 0, 0, 0]<br/>class = One Pair>, fillcolor="#eef08b"] ;
6521 -> 6522 ;
6523 [label=<C3 &le; 1.5<br/>entropy = 0.931<br/>samples = 33<br/>value = [0, 25, 1, 7, 0, 0, 0, 0, 0, 0]<br/>class = One Pair>, fillcolor="#ebed76"] ;
6522 -> 6523 ;
6524 [label=<entropy = 0.0<br/>samples = 7<br/>value = [0, 0, 0, 7, 0, 0, 0, 0, 0, 0]<br/>class = Three of a Kind>, fillcolor="#39e55e"] ;
6523 -> 6524 ;
6525 [label=<C1 &le; 9.5<br/>entropy = 0.235<br/>samples = 26<br/>value = [0, 25, 1, 0, 0, 0, 0, 0, 0, 0]<br/>class = One Pair>, fillcolor="#e3e641"] ;
6523 -> 6525 ;
6526 [label="(...)", fillcolor="#C0C0C0"] ;
6525 -> 6526 ;
6527 [label="(...)", fillcolor="#C0C0C0"] ;
6525 -> 6527 ;
6532 [label=<C3 &le; 1.5<br/>entropy = 1.342<br/>samples = 80<br/>value = [21, 50, 8, 0, 1, 0, 0, 0, 0, 0]<br/>class = One Pair>, fillcolor="#f1f29e"] ;
6522 -> 6532 ;
6533 [label=<S1 &le; 3.5<br/>entropy = 0.402<br/>samples = 25<br/>value = [0, 23, 2, 0, 0, 0, 0, 0, 0, 0]<br/>class = One Pair>, fillcolor="#e5e74a"] ;
6532 -> 6533 ;
6534 [label="(...)", fillcolor="#C0C0C0"] ;
6533 -> 6534 ;
6535 [label="(...)", fillcolor="#C0C0C0"] ;
6533 -> 6535 ;
6538 [label=<C1 &le; 5.5<br/>entropy = 1.488<br/>samples = 55<br/>value = [21, 27, 6, 0, 1, 0, 0, 0, 0, 0]<br/>class = One Pair>, fillcolor="#fafadc"] ;
6532 -> 6538 ;
6539 [label="(...)", fillcolor="#C0C0C0"] ;
6538 -> 6539 ;
6548 [label="(...)", fillcolor="#C0C0C0"] ;
6538 -> 6548 ;
6585 [label=<C3 &le; 1.5<br/>entropy = 1.186<br/>samples = 212<br/>value = [51, 146, 12, 3, 0, 0, 0, 0, 0, 0]<br/>class = One Pair>, fillcolor="#eef08a"] ;
6521 -> 6585 ;
6586 [label=<C2 &le; 1.5<br/>entropy = 1.134<br/>samples = 97<br/>value = [28, 64, 5, 0, 0, 0, 0, 0, 0, 0]<br/>class = One Pair>, fillcolor="#f0f198"] ;
6585 -> 6586 ;
6587 [label=<S2 &le; 3.5<br/>entropy = 0.297<br/>samples = 38<br/>value = [0, 36, 2, 0, 0, 0, 0, 0, 0, 0]<br/>class = One Pair>, fillcolor="#e4e644"] ;
6586 -> 6587 ;
6588 [label="(...)", fillcolor="#C0C0C0"] ;
6587 -> 6588 ;
6589 [label="(...)", fillcolor="#C0C0C0"] ;
6587 -> 6589 ;
6598 [label=<C1 &le; 5.5<br/>entropy = 1.239<br/>samples = 59<br/>value = [28, 28, 3, 0, 0, 0, 0, 0, 0, 0]<br/>class = Nothing in hand>, fillcolor="#ffffff"] ;
6586 -> 6598 ;
6599 [label="(...)", fillcolor="#C0C0C0"] ;
6598 -> 6599 ;
6600 [label="(...)", fillcolor="#C0C0C0"] ;
6598 -> 6600 ;
6639 [label=<C2 &le; 1.5<br/>entropy = 1.195<br/>samples = 115<br/>value = [23, 82, 7, 3, 0, 0, 0, 0, 0, 0]<br/>class = One Pair>, fillcolor="#ecee80"] ;
6585 -> 6639 ;
6640 [label=<S3 &le; 2.5<br/>entropy = 1.128<br/>samples = 42<br/>value = [23, 18, 1, 0, 0, 0, 0, 0, 0, 0]<br/>class = Nothing in hand>, fillcolor="#fae5d6"] ;
6639 -> 6640 ;
6641 [label="(...)", fillcolor="#C0C0C0"] ;
6640 -> 6641 ;
6650 [label="(...)", fillcolor="#C0C0C0"] ;
6640 -> 6650 ;
6669 [label=<S5 &le; 2.5<br/>entropy = 0.652<br/>samples = 73<br/>value = [0, 64, 6, 3, 0, 0, 0, 0, 0, 0]<br/>class = One Pair>, fillcolor="#e6e854"] ;
6639 -> 6669 ;
6670 [label="(...)", fillcolor="#C0C0C0"] ;
6669 -> 6670 ;
6679 [label="(...)", fillcolor="#C0C0C0"] ;
6669 -> 6679 ;
6704 [label=<C1 &le; 6.5<br/>entropy = 1.292<br/>samples = 2619<br/>value = [1480, 968, 155, 8, 2, 5, 1, 0, 0, 0]<br/>class = Nothing in hand>, fillcolor="#f7d8c2"] ;
6280 -> 6704 ;
6705 [label=<C4 &le; 6.5<br/>entropy = 1.412<br/>samples = 773<br/>value = [411, 290, 62, 3, 2, 4, 1, 0, 0, 0]<br/>class = Nothing in hand>, fillcolor="#f8dfcd"] ;
6704 -> 6705 ;
6706 [label=<C2 &le; 6.5<br/>entropy = 1.703<br/>samples = 211<br/>value = [74, 95, 35, 3, 2, 1, 1, 0, 0, 0]<br/>class = One Pair>, fillcolor="#fbfbe1"] ;
6705 -> 6706 ;
6707 [label=<C5 &le; 1.5<br/>entropy = 1.852<br/>samples = 68<br/>value = [10, 34, 18, 3, 2, 0, 1, 0, 0, 0]<br/>class = One Pair>, fillcolor="#f6f7c0"] ;
6706 -> 6707 ;
6708 [label=<C3 &le; 1.5<br/>entropy = 1.766<br/>samples = 24<br/>value = [8, 7, 8, 1, 0, 0, 0, 0, 0, 0]<br/>class = Nothing in hand>, fillcolor="#ffffff"] ;
6707 -> 6708 ;
6709 [label="(...)", fillcolor="#C0C0C0"] ;
6708 -> 6709 ;
6712 [label="(...)", fillcolor="#C0C0C0"] ;
6708 -> 6712 ;
6727 [label=<C3 &le; 1.5<br/>entropy = 1.65<br/>samples = 44<br/>value = [2, 27, 10, 2, 2, 0, 1, 0, 0, 0]<br/>class = One Pair>, fillcolor="#f0f29c"] ;
6707 -> 6727 ;
6728 [label="(...)", fillcolor="#C0C0C0"] ;
6727 -> 6728 ;
6737 [label="(...)", fillcolor="#C0C0C0"] ;
6727 -> 6737 ;
6766 [label=<S2 &le; 2.5<br/>entropy = 1.459<br/>samples = 143<br/>value = [64, 61, 17, 0, 0, 1, 0, 0, 0, 0]<br/>class = Nothing in hand>, fillcolor="#fefaf8"] ;
6706 -> 6766 ;
6767 [label=<C3 &le; 2.5<br/>entropy = 1.29<br/>samples = 61<br/>value = [36, 21, 3, 0, 0, 1, 0, 0, 0, 0]<br/>class = Nothing in hand>, fillcolor="#f5d0b5"] ;
6766 -> 6767 ;
6768 [label="(...)", fillcolor="#C0C0C0"] ;
6767 -> 6768 ;
6793 [label="(...)", fillcolor="#C0C0C0"] ;
6767 -> 6793 ;
6804 [label=<S4 &le; 2.5<br/>entropy = 1.47<br/>samples = 82<br/>value = [28, 40, 14, 0, 0, 0, 0, 0, 0, 0]<br/>class = One Pair>, fillcolor="#f9f9d3"] ;
6766 -> 6804 ;
6805 [label="(...)", fillcolor="#C0C0C0"] ;
6804 -> 6805 ;
6840 [label="(...)", fillcolor="#C0C0C0"] ;
6804 -> 6840 ;
6881 [label=<C4 &le; 11.5<br/>entropy = 1.223<br/>samples = 562<br/>value = [337, 195, 27, 0, 0, 3, 0, 0, 0, 0]<br/>class = Nothing in hand>, fillcolor="#f5ceb2"] ;
6705 -> 6881 ;
6882 [label=<C2 &le; 10.5<br/>entropy = 1.158<br/>samples = 411<br/>value = [249, 145, 17, 0, 0, 0, 0, 0, 0, 0]<br/>class = Nothing in hand>, fillcolor="#f5ceb2"] ;
6881 -> 6882 ;
6883 [label=<S5 &le; 3.5<br/>entropy = 1.23<br/>samples = 291<br/>value = [167, 107, 17, 0, 0, 0, 0, 0, 0, 0]<br/>class = Nothing in hand>, fillcolor="#f7d6be"] ;
6882 -> 6883 ;
6884 [label="(...)", fillcolor="#C0C0C0"] ;
6883 -> 6884 ;
7037 [label="(...)", fillcolor="#C0C0C0"] ;
6883 -> 7037 ;
7084 [label=<S1 &le; 2.5<br/>entropy = 0.901<br/>samples = 120<br/>value = [82, 38, 0, 0, 0, 0, 0, 0, 0, 0]<br/>class = Nothing in hand>, fillcolor="#f1bb95"] ;
6882 -> 7084 ;
7085 [label="(...)", fillcolor="#C0C0C0"] ;
7084 -> 7085 ;
7126 [label="(...)", fillcolor="#C0C0C0"] ;
7084 -> 7126 ;
7159 [label=<C2 &le; 5.5<br/>entropy = 1.354<br/>samples = 151<br/>value = [88, 50, 10, 0, 0, 3, 0, 0, 0, 0]<br/>class = Nothing in hand>, fillcolor="#f5d0b5"] ;
6881 -> 7159 ;
7160 [label=<C1 &le; 5.5<br/>entropy = 1.556<br/>samples = 30<br/>value = [9, 16, 4, 0, 0, 1, 0, 0, 0, 0]<br/>class = One Pair>, fillcolor="#f5f6bd"] ;
7159 -> 7160 ;
7161 [label="(...)", fillcolor="#C0C0C0"] ;
7160 -> 7161 ;
7178 [label="(...)", fillcolor="#C0C0C0"] ;
7160 -> 7178 ;
7187 [label=<C2 &le; 11.5<br/>entropy = 1.229<br/>samples = 121<br/>value = [79, 34, 6, 0, 0, 2, 0, 0, 0, 0]<br/>class = Nothing in hand>, fillcolor="#f2be99"] ;
7159 -> 7187 ;
7188 [label="(...)", fillcolor="#C0C0C0"] ;
7187 -> 7188 ;
7247 [label="(...)", fillcolor="#C0C0C0"] ;
7187 -> 7247 ;
7276 [label=<C4 &le; 8.5<br/>entropy = 1.233<br/>samples = 1846<br/>value = [1069, 678, 93, 5, 0, 1, 0, 0, 0, 0]<br/>class = Nothing in hand>, fillcolor="#f6d5bd"] ;
6704 -> 7276 ;
7277 [label=<C1 &le; 8.5<br/>entropy = 1.125<br/>samples = 957<br/>value = [589, 336, 32, 0, 0, 0, 0, 0, 0, 0]<br/>class = Nothing in hand>, fillcolor="#f4ccae"] ;
7276 -> 7277 ;
7278 [label=<S4 &le; 3.5<br/>entropy = 1.251<br/>samples = 263<br/>value = [144, 103, 16, 0, 0, 0, 0, 0, 0, 0]<br/>class = Nothing in hand>, fillcolor="#f8dfcc"] ;
7277 -> 7278 ;
7279 [label=<S1 &le; 3.5<br/>entropy = 1.232<br/>samples = 201<br/>value = [102, 89, 10, 0, 0, 0, 0, 0, 0, 0]<br/>class = Nothing in hand>, fillcolor="#fcf0e8"] ;
7278 -> 7279 ;
7280 [label="(...)", fillcolor="#C0C0C0"] ;
7279 -> 7280 ;
7377 [label="(...)", fillcolor="#C0C0C0"] ;
7279 -> 7377 ;
7404 [label=<S1 &le; 2.5<br/>entropy = 1.191<br/>samples = 62<br/>value = [42, 14, 6, 0, 0, 0, 0, 0, 0, 0]<br/>class = Nothing in hand>, fillcolor="#f0b68c"] ;
7278 -> 7404 ;
7405 [label="(...)", fillcolor="#C0C0C0"] ;
7404 -> 7405 ;
7434 [label="(...)", fillcolor="#C0C0C0"] ;
7404 -> 7434 ;
7445 [label=<C5 &le; 1.5<br/>entropy = 1.065<br/>samples = 694<br/>value = [445, 233, 16, 0, 0, 0, 0, 0, 0, 0]<br/>class = Nothing in hand>, fillcolor="#f3c5a4"] ;
7277 -> 7445 ;
7446 [label=<C3 &le; 1.5<br/>entropy = 0.93<br/>samples = 222<br/>value = [157, 63, 2, 0, 0, 0, 0, 0, 0, 0]<br/>class = Nothing in hand>, fillcolor="#f0b58a"] ;
7445 -> 7446 ;
7447 [label="(...)", fillcolor="#C0C0C0"] ;
7446 -> 7447 ;
7456 [label="(...)", fillcolor="#C0C0C0"] ;
7446 -> 7456 ;
7517 [label=<C3 &le; 1.5<br/>entropy = 1.116<br/>samples = 472<br/>value = [288, 170, 14, 0, 0, 0, 0, 0, 0, 0]<br/>class = Nothing in hand>, fillcolor="#f5ceb2"] ;
7445 -> 7517 ;
7518 [label="(...)", fillcolor="#C0C0C0"] ;
7517 -> 7518 ;
7599 [label="(...)", fillcolor="#C0C0C0"] ;
7517 -> 7599 ;
7806 [label=<C2 &le; 8.5<br/>entropy = 1.329<br/>samples = 889<br/>value = [480, 342, 61, 5, 0, 1, 0, 0, 0, 0]<br/>class = Nothing in hand>, fillcolor="#f8dfcd"] ;
7276 -> 7806 ;
7807 [label=<C1 &le; 8.5<br/>entropy = 1.123<br/>samples = 463<br/>value = [288, 159, 16, 0, 0, 0, 0, 0, 0, 0]<br/>class = Nothing in hand>, fillcolor="#f4caab"] ;
7806 -> 7807 ;
7808 [label=<C2 &le; 7.5<br/>entropy = 0.892<br/>samples = 136<br/>value = [94, 42, 0, 0, 0, 0, 0, 0, 0, 0]<br/>class = Nothing in hand>, fillcolor="#f1b991"] ;
7807 -> 7808 ;
7809 [label="(...)", fillcolor="#C0C0C0"] ;
7808 -> 7809 ;
7864 [label="(...)", fillcolor="#C0C0C0"] ;
7808 -> 7864 ;
7875 [label=<C2 &le; 7.5<br/>entropy = 1.19<br/>samples = 327<br/>value = [194, 117, 16, 0, 0, 0, 0, 0, 0, 0]<br/>class = Nothing in hand>, fillcolor="#f5d1b6"] ;
7807 -> 7875 ;
7876 [label="(...)", fillcolor="#C0C0C0"] ;
7875 -> 7876 ;
8059 [label="(...)", fillcolor="#C0C0C0"] ;
7875 -> 8059 ;
8102 [label=<C1 &le; 8.5<br/>entropy = 1.48<br/>samples = 426<br/>value = [192, 183, 45, 5, 0, 1, 0, 0, 0, 0]<br/>class = Nothing in hand>, fillcolor="#fefaf8"] ;
7806 -> 8102 ;
8103 [label=<C1 &le; 7.5<br/>entropy = 1.136<br/>samples = 111<br/>value = [68, 39, 4, 0, 0, 0, 0, 0, 0, 0]<br/>class = Nothing in hand>, fillcolor="#f5ccaf"] ;
8102 -> 8103 ;
8104 [label="(...)", fillcolor="#C0C0C0"] ;
8103 -> 8104 ;
8133 [label="(...)", fillcolor="#C0C0C0"] ;
8103 -> 8133 ;
8170 [label=<S2 &le; 1.5<br/>entropy = 1.55<br/>samples = 315<br/>value = [124, 144, 41, 5, 0, 1, 0, 0, 0, 0]<br/>class = One Pair>, fillcolor="#fcfcea"] ;
8102 -> 8170 ;
8171 [label="(...)", fillcolor="#C0C0C0"] ;
8170 -> 8171 ;
8246 [label="(...)", fillcolor="#C0C0C0"] ;
8170 -> 8246 ;
8445 [label=<C2 &le; 3.5<br/>entropy = 1.24<br/>samples = 11344<br/>value = [6584, 4273, 309, 132, 19, 25, 1, 1, 0, 0]<br/>class = Nothing in hand>, fillcolor="#f7d6be"] ;
6279 -> 8445 ;
8446 [label=<C5 &le; 6.5<br/>entropy = 1.293<br/>samples = 2531<br/>value = [1467, 895, 150, 10, 4, 4, 1, 0, 0, 0]<br/>class = Nothing in hand>, fillcolor="#f6d3ba"] ;
8445 -> 8446 ;
8447 [label=<C1 &le; 6.5<br/>entropy = 1.329<br/>samples = 748<br/>value = [413, 283, 43, 5, 4, 0, 0, 0, 0, 0]<br/>class = Nothing in hand>, fillcolor="#f8dcc8"] ;
8446 -> 8447 ;
8448 [label=<C4 &le; 6.5<br/>entropy = 1.684<br/>samples = 207<br/>value = [82, 88, 28, 5, 4, 0, 0, 0, 0, 0]<br/>class = One Pair>, fillcolor="#fefef5"] ;
8447 -> 8448 ;
8449 [label=<C1 &le; 5.5<br/>entropy = 1.81<br/>samples = 58<br/>value = [6, 33, 10, 5, 4, 0, 0, 0, 0, 0]<br/>class = One Pair>, fillcolor="#f1f3a0"] ;
8448 -> 8449 ;
8450 [label=<S3 &le; 2.5<br/>entropy = 1.735<br/>samples = 42<br/>value = [5, 23, 10, 3, 1, 0, 0, 0, 0, 0]<br/>class = One Pair>, fillcolor="#f3f4af"] ;
8449 -> 8450 ;
8451 [label="(...)", fillcolor="#C0C0C0"] ;
8450 -> 8451 ;
8462 [label="(...)", fillcolor="#C0C0C0"] ;
8450 -> 8462 ;
8485 [label=<S3 &le; 3.5<br/>entropy = 1.502<br/>samples = 16<br/>value = [1, 10, 0, 2, 3, 0, 0, 0, 0, 0]<br/>class = One Pair>, fillcolor="#eff194"] ;
8449 -> 8485 ;
8486 [label="(...)", fillcolor="#C0C0C0"] ;
8485 -> 8486 ;
8493 [label="(...)", fillcolor="#C0C0C0"] ;
8485 -> 8493 ;
8496 [label=<C5 &le; 4.5<br/>entropy = 1.394<br/>samples = 149<br/>value = [76, 55, 18, 0, 0, 0, 0, 0, 0, 0]<br/>class = Nothing in hand>, fillcolor="#f9e3d3"] ;
8448 -> 8496 ;
8497 [label=<C1 &le; 4.5<br/>entropy = 1.173<br/>samples = 62<br/>value = [38, 21, 3, 0, 0, 0, 0, 0, 0, 0]<br/>class = Nothing in hand>, fillcolor="#f4cbad"] ;
8496 -> 8497 ;
8498 [label="(...)", fillcolor="#C0C0C0"] ;
8497 -> 8498 ;
8505 [label="(...)", fillcolor="#C0C0C0"] ;
8497 -> 8505 ;
8534 [label=<C1 &le; 4.5<br/>entropy = 1.489<br/>samples = 87<br/>value = [38, 34, 15, 0, 0, 0, 0, 0, 0, 0]<br/>class = Nothing in hand>, fillcolor="#fdf5f0"] ;
8496 -> 8534 ;
8535 [label="(...)", fillcolor="#C0C0C0"] ;
8534 -> 8535 ;
8552 [label="(...)", fillcolor="#C0C0C0"] ;
8534 -> 8552 ;
8607 [label=<S5 &le; 2.5<br/>entropy = 1.108<br/>samples = 541<br/>value = [331, 195, 15, 0, 0, 0, 0, 0, 0, 0]<br/>class = Nothing in hand>, fillcolor="#f5cdb1"] ;
8447 -> 8607 ;
8608 [label=<S4 &le; 1.5<br/>entropy = 1.029<br/>samples = 274<br/>value = [162, 110, 2, 0, 0, 0, 0, 0, 0, 0]<br/>class = Nothing in hand>, fillcolor="#f7d7c0"] ;
8607 -> 8608 ;
8609 [label=<C5 &le; 4.5<br/>entropy = 0.845<br/>samples = 66<br/>value = [48, 18, 0, 0, 0, 0, 0, 0, 0, 0]<br/>class = Nothing in hand>, fillcolor="#efb083"] ;
8608 -> 8609 ;
8610 [label="(...)", fillcolor="#C0C0C0"] ;
8609 -> 8610 ;
8621 [label="(...)", fillcolor="#C0C0C0"] ;
8609 -> 8621 ;
8646 [label=<S1 &le; 2.5<br/>entropy = 1.06<br/>samples = 208<br/>value = [114, 92, 2, 0, 0, 0, 0, 0, 0, 0]<br/>class = Nothing in hand>, fillcolor="#fae7d9"] ;
8608 -> 8646 ;
8647 [label="(...)", fillcolor="#C0C0C0"] ;
8646 -> 8647 ;
8726 [label="(...)", fillcolor="#C0C0C0"] ;
8646 -> 8726 ;
8795 [label=<S3 &le; 2.5<br/>entropy = 1.156<br/>samples = 267<br/>value = [169, 85, 13, 0, 0, 0, 0, 0, 0, 0]<br/>class = Nothing in hand>, fillcolor="#f3c5a4"] ;
8607 -> 8795 ;
8796 [label=<S1 &le; 2.5<br/>entropy = 1.098<br/>samples = 128<br/>value = [90, 30, 8, 0, 0, 0, 0, 0, 0, 0]<br/>class = Nothing in hand>, fillcolor="#efb286"] ;
8795 -> 8796 ;
8797 [label="(...)", fillcolor="#C0C0C0"] ;
8796 -> 8797 ;
8852 [label="(...)", fillcolor="#C0C0C0"] ;
8796 -> 8852 ;
8885 [label=<S5 &le; 3.5<br/>entropy = 1.165<br/>samples = 139<br/>value = [79, 55, 5, 0, 0, 0, 0, 0, 0, 0]<br/>class = Nothing in hand>, fillcolor="#f8dbc6"] ;
8795 -> 8885 ;
8886 [label="(...)", fillcolor="#C0C0C0"] ;
8885 -> 8886 ;
8939 [label="(...)", fillcolor="#C0C0C0"] ;
8885 -> 8939 ;
8988 [label=<C4 &le; 8.5<br/>entropy = 1.271<br/>samples = 1783<br/>value = [1054, 612, 107, 5, 0, 4, 1, 0, 0, 0]<br/>class = Nothing in hand>, fillcolor="#f5cfb4"] ;
8446 -> 8988 ;
8989 [label=<C1 &le; 8.5<br/>entropy = 1.2<br/>samples = 911<br/>value = [563, 303, 40, 1, 0, 4, 0, 0, 0, 0]<br/>class = Nothing in hand>, fillcolor="#f4c9aa"] ;
8988 -> 8989 ;
8990 [label=<C5 &le; 8.5<br/>entropy = 1.214<br/>samples = 425<br/>value = [242, 163, 19, 1, 0, 0, 0, 0, 0, 0]<br/>class = Nothing in hand>, fillcolor="#f7d9c3"] ;
8989 -> 8990 ;
8991 [label=<C4 &le; 7.5<br/>entropy = 1.362<br/>samples = 120<br/>value = [49, 61, 9, 1, 0, 0, 0, 0, 0, 0]<br/>class = One Pair>, fillcolor="#fafbde"] ;
8990 -> 8991 ;
8992 [label="(...)", fillcolor="#C0C0C0"] ;
8991 -> 8992 ;
9071 [label="(...)", fillcolor="#C0C0C0"] ;
8991 -> 9071 ;
9084 [label=<S1 &le; 2.5<br/>entropy = 1.108<br/>samples = 305<br/>value = [193, 102, 10, 0, 0, 0, 0, 0, 0, 0]<br/>class = Nothing in hand>, fillcolor="#f3c7a6"] ;
8990 -> 9084 ;
9085 [label="(...)", fillcolor="#C0C0C0"] ;
9084 -> 9085 ;
9196 [label="(...)", fillcolor="#C0C0C0"] ;
9084 -> 9196 ;
9279 [label=<C1 &le; 10.5<br/>entropy = 1.165<br/>samples = 486<br/>value = [321, 140, 21, 0, 0, 4, 0, 0, 0, 0]<br/>class = Nothing in hand>, fillcolor="#f1bd97"] ;
8989 -> 9279 ;
9280 [label=<C5 &le; 10.5<br/>entropy = 1.219<br/>samples = 188<br/>value = [122, 55, 7, 0, 0, 4, 0, 0, 0, 0]<br/>class = Nothing in hand>, fillcolor="#f2c09b"] ;
9279 -> 9280 ;
9281 [label="(...)", fillcolor="#C0C0C0"] ;
9280 -> 9281 ;
9366 [label="(...)", fillcolor="#C0C0C0"] ;
9280 -> 9366 ;
9385 [label=<C5 &le; 10.5<br/>entropy = 1.112<br/>samples = 298<br/>value = [199, 85, 14, 0, 0, 0, 0, 0, 0, 0]<br/>class = Nothing in hand>, fillcolor="#f1bc95"] ;
9279 -> 9385 ;
9386 [label="(...)", fillcolor="#C0C0C0"] ;
9385 -> 9386 ;
9479 [label="(...)", fillcolor="#C0C0C0"] ;
9385 -> 9479 ;
9572 [label=<C1 &le; 8.5<br/>entropy = 1.328<br/>samples = 872<br/>value = [491, 309, 67, 4, 0, 0, 1, 0, 0, 0]<br/>class = Nothing in hand>, fillcolor="#f7d6bf"] ;
8988 -> 9572 ;
9573 [label=<S2 &le; 2.5<br/>entropy = 1.122<br/>samples = 451<br/>value = [292, 140, 19, 0, 0, 0, 0, 0, 0, 0]<br/>class = Nothing in hand>, fillcolor="#f2c19e"] ;
9572 -> 9573 ;
9574 [label=<C2 &le; 1.5<br/>entropy = 1.169<br/>samples = 226<br/>value = [132, 85, 9, 0, 0, 0, 0, 0, 0, 0]<br/>class = Nothing in hand>, fillcolor="#f6d5bd"] ;
9573 -> 9574 ;
9575 [label="(...)", fillcolor="#C0C0C0"] ;
9574 -> 9575 ;
9606 [label="(...)", fillcolor="#C0C0C0"] ;
9574 -> 9606 ;
9705 [label=<C4 &le; 11.5<br/>entropy = 1.046<br/>samples = 225<br/>value = [160, 55, 10, 0, 0, 0, 0, 0, 0, 0]<br/>class = Nothing in hand>, fillcolor="#efb185"] ;
9573 -> 9705 ;
9706 [label="(...)", fillcolor="#C0C0C0"] ;
9705 -> 9706 ;
9815 [label="(...)", fillcolor="#C0C0C0"] ;
9705 -> 9815 ;
9852 [label=<C5 &le; 8.5<br/>entropy = 1.481<br/>samples = 421<br/>value = [199, 169, 48, 4, 0, 0, 1, 0, 0, 0]<br/>class = Nothing in hand>, fillcolor="#fcf0e7"] ;
9572 -> 9852 ;
9853 [label=<S2 &le; 1.5<br/>entropy = 1.132<br/>samples = 112<br/>value = [69, 39, 4, 0, 0, 0, 0, 0, 0, 0]<br/>class = Nothing in hand>, fillcolor="#f4cbae"] ;
9852 -> 9853 ;
9854 [label="(...)", fillcolor="#C0C0C0"] ;
9853 -> 9854 ;
9869 [label="(...)", fillcolor="#C0C0C0"] ;
9853 -> 9869 ;
9930 [label=<S2 &le; 2.5<br/>entropy = 1.559<br/>samples = 309<br/>value = [130, 130, 44, 4, 0, 0, 1, 0, 0, 0]<br/>class = Nothing in hand>, fillcolor="#ffffff"] ;
9852 -> 9930 ;
9931 [label="(...)", fillcolor="#C0C0C0"] ;
9930 -> 9931 ;
10064 [label="(...)", fillcolor="#C0C0C0"] ;
9930 -> 10064 ;
10193 [label=<S2 &le; 3.5<br/>entropy = 1.214<br/>samples = 8813<br/>value = [5117, 3378, 159, 122, 15, 21, 0, 1, 0, 0]<br/>class = Nothing in hand>, fillcolor="#f7d7c0"] ;
8445 -> 10193 ;
